tree
version=v4
num_class=1
num_tree_per_iteration=1
label_index=0
max_feature_idx=31
objective=binary sigmoid:1
feature_names=income name_email_similarity prev_address_months_count current_address_months_count customer_age days_since_request intended_balcon_amount payment_type zip_count_4w velocity_6h velocity_24h velocity_4w bank_branch_count_8w date_of_birth_distinct_emails_4w employment_status credit_risk_score email_is_free housing_status phone_home_valid phone_mobile_valid bank_months_count has_other_cards proposed_credit_limit foreign_request session_length_in_minutes device_os keep_alive_session device_distinct_emails_8w month MISSING_FLAG_prev_address_months_count MISSING_FLAG_intended_balcon_amount MISSING_FLAG_bank_months_count
feature_infos=[0.10000000000000001:0.90000000000000002] [3.1984226880998889e-05:0.99999888772630441] [-1:377] [-1:425] [10:90] [4.0368597887217861e-09:78.456903835098615] [-1:112.45207831298237] -1:1:0:2:3 [1:6700] [-130.45692803910583:16545.254134621471] [1320.2839909173258:9506.8965961116646] [2864.9098453179249:6961.6167933386878] [0:2385] [0:39] -1:0:1:5:2:3:4 [-165:385] [0:1] -1:2:1:0:3:4 [0:1] [0:1] [-1:32] [0:1] [1:4] [0:1] [-1:83.213535814056002] -1:2:0:3:1 [0:1] -1:2:3:1 [0:7] [0:1] [0:1] [0:1]
tree_sizes=1853 1939 1954 1962 1964 1937 1966 1924 1963 1983 1934 1975 1964 2011 2008 1931 1971 1975 2022 1986 1994 2014 1985 2010 2020 2030 2000 2010 2001 2008 2015 1996 1987 1987 2010 1980 2002 2012 2015 2008 1971 1976 1975 2006 2015 2005 1997 1978 2003 2027 1982 1999 1981 2002 2012 2008 1972 2017 2007 2013 1992 1980 1995 1943 2004 1995 2011 1985 1981 1996 1973 1984 1992 1976 1991 1974 1997 1971 1989 1989 2004 1959 1988 1964 1986 2007 1973 1979 1978 1983 2009

Tree=0
num_leaves=17
num_cat=7
split_feature=17 25 18 1 13 12 12 25 27 27 4 15 15 27 27 22
split_gain=6164.24 3154.03 1561.33 1333.87 989.009 690.047 647.072 538.241 489.649 451.164 443.334 425.377 408.928 360.161 330.988 305.579
threshold=0 1 1.0000000180025095e-35 0.24785219920741045 2.5000000000000004 2.5000000000000004 1.5000000000000002 2 3 4 55.000000000000007 268.50000000000006 264.50000000000006 5 6 3.5000000000000004
decision_type=1 1 2 2 2 2 2 1 9 9 2 2 2 9 9 2
left_child=1 2 3 4 11 10 8 14 12 -4 15 -1 -5 -3 -2 -6
right_child=7 13 9 6 5 -7 -8 -9 -10 -11 -12 -13 -14 -15 -16 -17
leaf_value=-3.5361173954704794 -4.498422063162459 -4.462625268268642 -4.3878909293338015 -4.2061014848650151 -3.9816459204227836 -4.1601829052628876 -4.3282011972893315 -4.532240647383909 -3.3529313691548843 -3.9454999501237138 -2.7799324242814594 -2.4041613770999755 -3.8316430027648773 -4.2378286758654404 -4.3561725522349821 -3.523805021448406
leaf_weight=4.7993106767535201 1268.2069388078526 515.74046983849257 153.34888364654034 38.023629589006305 11.769218682311481 34.282348765991628 86.507574948482215 3037.7891379967332 2.0942446589469901 5.9882308216765514 1.0471223294734944 1.0034922324120996 9.0205225674435479 18.455531056970358 42.255749003961682 5.2792417444288722
leaf_count=440 116269 47283 14059 3486 1079 3143 7931 278504 192 549 96 92 827 1692 3874 484
internal_value=-4.49612 -4.37679 -4.26194 -4.15999 -3.95972 -4.02833 -4.2459 -4.52069 -4.101 -4.37126 -3.77854 -3.34037 -4.1343 -4.45562 -4.49385 -3.83987
internal_weight=0 887.36 353.164 193.827 58.1807 52.3779 135.646 4348.25 49.1384 159.337 18.0956 5.8028 47.0442 534.196 1310.46 17.0485
internal_count=480000 81353 32378 17770 5334 4802 12436 398647 4505 14608 1659 532 4313 48975 120143 1563
cat_boundaries=0 1 2 3 4 5 6 7
cat_threshold=1 10 10 4 4 4 4
is_linear=0
shrinkage=1


Tree=1
num_leaves=17
num_cat=4
split_feature=17 25 21 26 25 0 1 18 15 22 4 27 16 16 11 20
split_gain=4893.02 1779.11 923.393 797.054 514.918 477.152 401.303 354.572 318.281 304.234 272.494 250.753 236.993 222.448 219.397 206.502
threshold=0 1 1.0000000180025095e-35 1.0000000180025095e-35 2 0.8500000000000002 0.29995297680646205 1.0000000180025095e-35 284.50000000000006 3.5000000000000004 55.000000000000007 3 1.0000000180025095e-35 1.0000000180025095e-35 4173.9606589030873 1.0000000180025095e-35
decision_type=1 1 2 2 1 2 2 2 2 2 2 9 2 2 2 2
left_child=1 2 3 5 8 13 7 10 11 -7 15 -2 -5 -1 -15 -3
right_child=4 6 -4 12 -6 9 -8 -9 -10 -11 -12 -13 -14 14 -16 -17
leaf_value=0.15577573795155536 -0.0052417083414754194 0.24001454411130765 0.038034570943663054 0.081232494187392174 -0.035581806379563263 0.31032554502291376 0.013597374245629658 0.02465555992246319 0.19885705803850312 0.52997400084985946 0.461014569108668 0.11143377363363967 0.20786148358393042 0.56614863422846129 0.26387691281467685 0.094286319014401695
leaf_weight=48.632603067904711 1245.7348350156099 33.541412914171815 84.442377652972937 78.781438386067748 2932.3189025223255 35.714701049029827 397.23489927873015 96.35453468374908 20.247296928428113 28.222752523608506 6.7389543065801254 47.817326813936234 69.586630970239639 6.9678140049800268 43.358595251105726 88.321433933451772
leaf_count=3345 114466 2743 6166 5725 278504 2454 34427 8423 1853 1776 505 3824 4976 464 2914 7435
internal_value=0 0.0976166 0.180126 0.22446 -0.0239345 0.30082 0.0431226 0.097176 0.00213401 0.407281 0.151512 -0.000928694 0.140623 0.232035 0.305727 0.134396
internal_weight=0 1017.9 395.707 311.265 4246.12 162.896 622.191 224.956 1313.8 63.9375 128.602 1293.55 148.368 98.959 50.3264 121.863
internal_count=480000 81353 27820 21654 398647 10953 53533 19106 120143 4230 10683 118290 10701 6723 3378 10178
cat_boundaries=0 1 2 3 4
cat_threshold=1 8 10 4
is_linear=0
shrinkage=0.05


Tree=2
num_leaves=17
num_cat=3
split_feature=17 25 21 2 15 25 1 26 15 21 15 24 0 0 1 21
split_gain=4051.2 1128.38 619.771 537.246 495.192 492.693 425.121 292.899 257.907 252.708 222.519 201.776 190.948 189.971 171.75 166.257
threshold=0 1 1.0000000180025095e-35 1.0000000180025095e-35 246.50000000000003 2 0.39049876951767337 1.0000000180025095e-35 213.50000000000003 1.0000000180025095e-35 248.50000000000003 24.545085590301223 0.8500000000000002 0.8500000000000002 0.31365906283374384 1.0000000180025095e-35
decision_type=1 1 2 2 2 1 2 2 2 2 2 2 2 2 2 2
left_child=1 2 3 4 6 8 13 9 -2 10 14 -12 -6 -1 -3 -10
right_child=5 7 -4 -5 12 -7 -8 -9 15 -11 11 -13 -14 -15 -16 -17
leaf_value=0.16751908323262901 -0.0033415427926637188 0.14265392236631744 0.027487418783768647 0.021751695076960689 0.21820159308668752 -0.03354480741424417 0.094799137209847895 0.00014604069160085095 0.10488362898310642 0.00036804214286856757 0.22174123995112793 0.97633675251085927 0.35989281851704019 0.28829331179592582 0.040100805865271212 -0.022086107994657142
leaf_weight=80.279556082561612 951.94633027538657 71.383971836417913 104.07811888493598 58.356990722939372 51.94082635641098 3064.9905297318473 153.09213035181165 306.39588665124029 97.128696297295392 86.308288412168622 20.928241710178558 0.92505147028714318 43.85285137873143 54.775094549171627 95.371757384389639 35.098979435861111
leaf_count=4410 87060 5587 7299 3330 2858 299824 9674 26065 8630 7282 1753 76 2059 2748 8212 3133
internal_value=0 0.0831746 0.134799 0.163098 0.184582 -0.0233025 0.151842 0.0331939 0.00569474 0.0712333 0.103662 0.253683 0.283066 0.216502 0.0840012 0.0711803
internal_weight=0 1127.69 546.376 442.297 383.94 4149.16 288.147 581.313 1084.17 274.917 188.609 21.8533 95.7937 135.055 166.756 132.228
internal_count=480000 81353 32378 25079 21749 398647 16832 48975 98823 22910 15628 1829 4917 7158 13799 11763
cat_boundaries=0 1 2 3
cat_threshold=1 10 8
is_linear=0
shrinkage=0.05


Tree=3
num_leaves=17
num_cat=3
split_feature=17 25 25 16 18 1 1 12 15 3 20 2 18 26 21 13
split_gain=3417.4 785.94 473.575 371.498 311.475 252.722 247.802 238.65 199.09 162.915 158.932 145.238 141.642 137.918 136.892 159.328
threshold=0 1 2 1.0000000180025095e-35 1.0000000180025095e-35 0.29995297680646205 0.22974771746776132 2.5000000000000004 250.50000000000003 49.500000000000007 1.0000000180025095e-35 7.5000000000000009 1.0000000180025095e-35 1.0000000180025095e-35 1.0000000180025095e-35 2.5000000000000004
decision_type=1 1 1 2 2 2 2 2 2 2 2 2 2 2 2 2
left_child=1 3 5 12 6 8 9 11 13 -3 -11 -5 -1 14 15 -2
right_child=2 4 -4 7 -6 -7 -8 -9 -10 10 -12 -13 -14 -15 -16 -17
leaf_value=0.10776475039895646 0.27222236421889767 0.03364193138540144 -0.034502170653125233 0.23442780966782531 -0.0037649000543239423 -0.012300967550686916 0.036570882052012206 0.12085696104948798 0.20166363705653267 0.262520108743307 0.11611872453854087 0.053333074329045244 0.033989154470233367 -0.00037400129589067513 -0.021581457669720319 0.068431403271558541
leaf_weight=156.44949035346508 10.377931069582699 37.877376369200647 2740.3593856170774 102.36423349566758 289.15732851997018 921.27729755453765 261.35910908505321 164.13614588789642 17.240368023514748 25.662526534870267 66.773036767728627 12.414240482263265 111.37308828160167 201.26783571764827 39.690133763477206 126.4768866058439
leaf_count=7564 927 2563 278504 4252 23993 84075 20959 8379 1379 1443 4575 584 7041 18550 3662 11550
internal_value=0 0.0722188 -0.0226722 0.117006 0.03508 0.00202996 0.0646534 0.159533 0.0355016 0.120976 0.156764 0.214841 0.0770854 0.0279193 0.0601746 0.0838852
internal_weight=0 1227.57 4056.69 546.737 680.829 1316.33 391.672 278.915 395.053 130.313 92.4356 114.778 267.823 377.813 176.545 136.855
internal_count=480000 81353 398647 27820 53533 120143 29540 13215 36068 8581 6018 4836 14605 34689 16139 12477
cat_boundaries=0 1 2 3
cat_threshold=1 8 10
is_linear=0
shrinkage=0.05


Tree=4
num_leaves=17
num_cat=3
split_feature=17 21 26 25 13 18 13 3 3 18 3 0 25 20 1 22
split_gain=2927.58 616.127 615.392 451.054 398.479 234.306 228.728 217.512 205.877 192.79 261.306 222.318 184.563 164.499 205.284 423.187
threshold=0 1.0000000180025095e-35 1.0000000180025095e-35 1 3.5000000000000004 1.0000000180025095e-35 2.5000000000000004 35.500000000000007 135.50000000000003 1.0000000180025095e-35 40.500000000000007 0.8500000000000002 2 1.0000000180025095e-35 0.24785219920741045 3.5000000000000004
decision_type=1 2 2 1 2 2 2 2 2 2 2 2 1 2 2 2
left_child=1 2 4 6 -1 7 -2 -6 -9 10 -8 -12 -4 14 15 -13
right_child=3 -3 12 -5 5 -7 9 8 -10 -11 11 13 -14 -15 -16 -17
leaf_value=0.20358712672374404 0.087005995839663966 -0.0010091189604148809 0.070138561344823575 -0.033936787813868288 0.028886415374941729 0.04330258872596067 -0.017096385867264013 0.18503201825312979 0.093688316985307302 -0.026694042802307236 0.023516770040759791 0.37720629736900635 0.0076576862691082855 0.081514950457922314 0.16666365742625505 1.9457517848345927
leaf_weight=109.85781395621598 74.482815523631871 284.41452177986503 248.32247624639422 2649.2088389992714 51.878589815460145 138.47286546882242 360.07650268450379 129.4232071172446 117.86302499752492 513.20784629136324 298.99514683056623 3.0387958455830808 238.00476404651999 57.537886932492256 12.198819742538033 0.50088912900537241
leaf_count=5021 6406 21082 12138 278504 2929 8541 32990 6296 5782 46876 27269 265 19564 5195 1104 38
internal_value=0 0.063679 0.0820912 -0.0220505 0.118449 0.0970772 0.00187995 0.121968 0.141495 -0.00319539 0.0132718 0.0426451 0.0411606 0.120696 0.263936 0.599166
internal_weight=0 1318.24 1033.82 3969.25 547.496 437.638 1320.04 299.165 247.286 1245.56 732.348 372.272 486.327 73.2764 15.7385 3.53968
internal_count=480000 81353 60271 398647 28569 23548 120143 15007 12078 113737 66861 33871 31702 6602 1407 303
cat_boundaries=0 1 2 3
cat_threshold=1 10 10
is_linear=0
shrinkage=0.05


Tree=5
num_leaves=17
num_cat=4
split_feature=17 16 25 0 1 25 15 2 18 15 21 5 26 13 27 4
split_gain=2533.94 519.426 427.731 331.849 213.861 213.552 192.689 154.54 189.723 150.243 145.071 137.447 134.229 122.358 115.261 112.292
threshold=0 1.0000000180025095e-35 1 0.8500000000000002 0.29995297680646205 2 213.50000000000003 1.0000000180025095e-35 1.0000000180025095e-35 206.50000000000003 1.0000000180025095e-35 18.158381801245188 1.0000000180025095e-35 3.5000000000000004 3 65.000000000000014
decision_type=1 2 1 2 2 1 2 2 2 2 2 2 2 2 9 2
left_child=1 5 4 10 7 -1 14 8 9 -2 12 13 -3 -8 -5 -11
right_child=2 3 -4 6 -6 -7 11 -9 -10 15 -12 -13 -14 -15 -16 -17
leaf_value=0.057168116503760295 0.067929073113138533 0.10199848630246995 -0.033362590942830429 0.085256006030680814 -0.01186389551073359 0.001914439269809621 0.27849432922371353 -0.0151792451497867 0.0074432424478175184 0.189502514986158 -0.0011209923113040781 1.0508784196496193 0.039914910498646872 0.15090783846613459 0.27595403588547412 1.0113234477270645
leaf_weight=311.01039342675358 133.27718401048332 195.98950484301895 2562.4539554566145 144.66534723341465 910.9973825039342 397.29224798362702 24.033636727370322 124.26572146825492 132.69707063212991 23.485848122276369 77.529714628122747 0.45361265074461599 156.65137156751007 86.156375109218061 8.3828989909961802 0.42314403690397639
leaf_count=14605 11484 9131 278504 8050 84075 29226 813 11082 11846 1633 5669 22 9521 4010 306 23
internal_value=0 0.0567258 -0.0214487 0.0878775 0.0016668 0.0270101 0.132042 0.0314703 0.0514678 0.0886335 0.0608048 0.182311 0.0744195 0.178736 0.0957011 0.204047
internal_weight=0 1402.17 3887.6 693.862 1325.15 708.303 263.692 414.149 289.883 157.186 430.171 110.644 352.641 110.19 153.048 23.909
internal_count=480000 81353 398647 37522 120143 43831 13201 36068 24986 13140 24321 4845 18652 4823 8356 1656
cat_boundaries=0 1 2 3 4
cat_threshold=1 10 8 4
is_linear=0
shrinkage=0.05


Tree=6
num_leaves=17
num_cat=2
split_feature=17 21 25 2 18 0 26 15 13 21 13 4 0 13 20 12
split_gain=2208.18 426.046 406.591 371.963 386.036 250.037 208.759 198.004 163.869 154.179 163.537 123.834 121.26 118.434 111.18 106.455
threshold=0 1.0000000180025095e-35 1 1.0000000180025095e-35 1.0000000180025095e-35 0.8500000000000002 1.0000000180025095e-35 284.50000000000006 2.5000000000000004 1.0000000180025095e-35 3.5000000000000004 55.000000000000007 0.8500000000000002 3.5000000000000004 1.0000000180025095e-35 2.5000000000000004
decision_type=1 2 1 2 2 2 2 2 2 2 2 2 2 2 2 2
left_child=1 3 6 4 5 11 7 9 -6 10 -2 -1 -12 14 -9 -7
right_child=2 -3 -4 -5 8 15 -8 13 -10 -11 12 -13 -14 -15 -16 -17
leaf_value=0.06505383933214684 0.11427285471482332 -0.0026374951735918736 -0.032780007678406088 -0.007888096498165461 0.11663933086297607 0.17078082721734189 -0.0164935866564698 1.0518140655429262 0.02264150450454596 -0.028775365606530302 0.007125092998392527 0.16875914211858667 0.07289929200099611 0.14501395415045523 0.30992417417092116 0.10680193457301422
leaf_weight=355.05293158441782 54.252841085195541 293.8134749121964 2479.8854176998138 153.95613148156554 53.909112200140953 122.42445111647248 726.31866200827062 0.72545168921351377 331.3773159859702 130.84007979091257 313.70249961689115 31.325386645272374 90.226219143718481 10.442261018790303 1.6617639446631072 138.65555391460657
leaf_count=17372 4263 21082 278504 9126 2722 4126 66814 42 19907 12174 28338 1066 7760 660 92 5952
internal_value=0 0.0509233 -0.0208374 0.0646134 0.0754216 0.0990032 0.0015394 0.0233273 0.0357936 0.0190948 0.0327648 0.0734617 0.0218172 0.21765 0.535377 0.136803
internal_weight=0 1480.51 3808.06 1186.7 1032.74 647.458 1328.17 601.851 385.286 589.022 458.182 386.378 403.929 12.8295 2.38722 261.08
internal_count=480000 81353 398647 60271 51145 28516 120143 53329 22629 52535 40361 18438 36098 794 134 10078
cat_boundaries=0 1 2
cat_threshold=1 10
is_linear=0
shrinkage=0.05


Tree=7
num_leaves=17
num_cat=6
split_feature=17 25 26 4 26 15 15 25 14 27 12 21 1 1 6 27
split_gain=1934.15 387.531 379.052 254.268 181.066 162.218 154.951 137.623 126.223 124.312 122.565 101.534 100.282 91.1994 86.9647 84.1389
threshold=0 1 1.0000000180025095e-35 45.000000000000007 1.0000000180025095e-35 213.50000000000003 268.50000000000006 2 3 4 2.5000000000000004 1.0000000180025095e-35 0.39049876951767337 0.25155013204896876 6.8160828426242199 5
decision_type=1 1 2 2 2 2 2 1 9 9 2 2 2 2 2 9
left_child=2 4 3 6 5 9 10 -4 12 13 -1 -7 14 -2 -5 -3
right_child=1 15 7 8 -6 11 -8 -9 -10 -11 -12 -13 -14 -15 -16 -17
leaf_value=0.065927701428681942 0.043949268289547837 -0.032398312268316964 0.042306971048979458 0.16736739580569449 -0.013640356095824414 0.13169638032863878 0.12106844231083032 -0.0024393687885281676 0.013494626135161529 0.11176521667181782 0.015653463278491327 -0.0075357237471613547 0.089090367263046533 -0.0080800136743928701 0.054697807469361308 0.018729048753668487
leaf_weight=220.42141127586365 121.55038388352841 2545.6347598647699 312.00851985998452 115.6678564324975 606.6620338652283 53.074231251142919 63.885751971043646 374.06751658394933 49.85593902040273 31.067524513229728 269.40350179746747 17.382392445579171 128.7429902004078 274.26978112850338 20.103129910305142 83.096034673973918
leaf_count=10262 9953 290553 13315 3830 56337 3566 2391 27838 2267 2091 14449 1514 6115 25362 886 9271
internal_value=0 -0.0202355 0.0459711 0.0682191 0.00465152 0.0270575 0.0478292 0.0184911 0.104132 0.0154566 0.0382769 0.0973464 0.116309 0.00789739 0.150685 -0.0306655
internal_weight=0 3732.74 1554.16 868.081 1104.01 497.344 553.711 686.076 314.37 426.888 489.825 70.4566 264.514 395.82 135.771 2628.73
internal_count=480000 398647 81353 40200 98823 42486 27102 41153 13098 37406 24711 5080 10831 35315 4716 299824
cat_boundaries=0 1 2 3 4 5 6
cat_threshold=1 8 8 5 4 4
is_linear=0
shrinkage=0.05


Tree=8
num_leaves=17
num_cat=3
split_feature=17 25 16 6 3 18 4 1 0 25 11 15 21 26 12 6
split_gain=1703.62 369.339 341.649 193.632 183.004 227.267 194.094 175.303 146.708 145.124 125.989 124.816 116.335 103.091 92.9404 91.0614
threshold=0 1 1.0000000180025095e-35 0.11398727644357561 40.500000000000007 1.0000000180025095e-35 55.000000000000007 0.22974771746776132 0.75000000000000011 2 3133.4398065291593 240.50000000000003 1.0000000180025095e-35 1.0000000180025095e-35 2.5000000000000004 1.1211851449999755
decision_type=1 1 2 2 2 2 2 2 2 1 2 2 2 2 2 2
left_child=2 4 9 7 -2 6 8 -4 -6 -1 -8 14 13 15 -9 -10
right_child=1 -3 3 -5 5 -7 10 11 12 -11 -12 -13 -14 -15 -16 -17
leaf_value=0.038436609460678006 -0.019897627852278443 -0.031618450509400341 0.10855169295050751 0.011627555117325668 0.013163365074504316 -0.01266762982165788 1.0207354625943033 0.067902059929511649 0.17797351478525125 -0.0042741661540198683 0.18718155803738534 0.097757725618319288 -0.017094206777570453 0.048246654150866562 0.012761709470278666 0.033362799797403024
leaf_weight=414.71251466684043 572.29767793416977 2329.7801923584193 252.91173229087144 143.63185082376003 259.56353679485619 341.64567676838487 0.46658505033701914 145.23717423900962 45.843157812021673 377.23977320548147 15.945182853378354 127.49033346772194 26.810602241195738 53.562282751314342 161.28167550824583 14.27621705830097
leaf_count=17005 53402 278504 9153 7830 22872 31570 33 6747 3150 26826 1178 4969 2307 4525 8823 1106
internal_value=0 -0.019633 0.0417621 0.0644238 0.001435 0.0175579 0.0423531 0.0754633 0.0354395 0.0185231 0.210879 0.0561815 0.0765954 0.0986911 0.0388887 0.143634
internal_weight=0 3660.19 1622.51 830.553 1330.41 758.113 416.468 686.921 400.056 791.952 16.4118 434.009 140.492 113.682 306.519 60.1194
internal_count=480000 398647 81353 37522 120143 66741 35171 29692 33960 43831 1211 20539 11088 8781 15570 4256
cat_boundaries=0 1 2 3
cat_threshold=1 10 10
is_linear=0
shrinkage=0.05


Tree=9
num_leaves=17
num_cat=3
split_feature=17 25 21 2 18 1 11 2 18 0 15 27 21 15 4 1
split_gain=1506.88 349.552 303.036 260.77 251.379 172.815 149.427 121.051 126.693 117.911 108.666 107.857 92.1899 94.3101 87.6898 77.0671
threshold=0 1 1.0000000180025095e-35 1.0000000180025095e-35 1.0000000180025095e-35 0.33247198424484886 4235.7819749405908 1.0000000180025095e-35 1.0000000180025095e-35 0.8500000000000002 288.50000000000006 2 1.0000000180025095e-35 152.50000000000003 55.000000000000007 0.40422722472518652
decision_type=1 1 2 2 2 2 2 2 2 2 2 9 2 2 2 2
left_child=2 5 3 4 6 7 -1 8 12 -8 11 15 13 -2 -7 -6
right_child=1 -3 -4 -5 10 14 9 -9 -10 -11 -12 -13 -14 -15 -16 -17
leaf_value=0.11281476275398997 0.053809085420754257 -0.031013923816269835 -0.0059220397435933887 -0.010676711405995005 0.036768136445781981 -0.015529546152565219 0.042931463654625003 -0.014617560027162968 0.0061004671203781433 0.088495110110748162 0.11188977211765537 0.11802894370252802 -0.014322021148388485 0.13244157288897629 0.059536194037771807 -0.0088334021956106758
leaf_weight=184.65821583010256 104.29976157471538 2258.454746875912 314.73615260981023 164.04145340807736 169.90727407485247 822.24360052589327 352.59613318927586 133.42855860013515 143.73180155176669 237.71938256174326 33.942297792062163 25.579201117157936 28.86786447558552 60.108221340924501 40.837235351093113 203.76448770891875
leaf_count=6812 8116 278504 21082 9126 8682 77494 14388 12175 12803 7316 1417 859 2379 3732 3444 11671
internal_value=0 -0.0190466 0.0381011 0.0484761 0.0565077 0.00130129 0.0735595 0.0256912 0.0416504 0.0612799 0.0260025 0.0187008 0.0680874 0.0825574 -0.0119778 0.0119015
internal_weight=0 3591.97 1686.94 1372.21 1208.17 1333.52 774.974 470.436 337.008 590.316 433.193 399.251 193.276 164.408 863.081 373.672
internal_count=480000 398647 81353 60271 51145 120143 28516 39205 27030 21704 22629 21212 14227 11848 80938 20353
cat_boundaries=0 1 2 3
cat_threshold=1 10 4
is_linear=0
shrinkage=0.05


Tree=10
num_leaves=17
num_cat=5
split_feature=17 25 26 12 0 20 21 15 21 22 27 25 4 10 15 27
split_gain=1335.51 330.933 264.958 176.963 165.25 130.328 116.459 125.876 107.574 106.021 105.836 86.2106 84.2576 115.912 77.7449 77.3326
threshold=0 1 1.0000000180025095e-35 2.5000000000000004 0.8500000000000002 29.500000000000004 1.0000000180025095e-35 205.50000000000003 1.0000000180025095e-35 3.5000000000000004 2 3 55.000000000000007 5381.2707878304964 244.50000000000003 4
decision_type=1 1 2 2 2 2 2 2 2 2 9 1 2 2 2 9
left_child=2 4 3 9 10 14 7 15 11 -1 -2 -4 -9 -14 -5 -6
right_child=1 -3 8 5 6 -7 -8 12 -10 -11 -12 -13 13 -15 -16 -17
leaf_value=0.056242738598385515 0.067007868817101426 -0.030403073908264206 0.037612639991216869 0.009986993879550321 0.023091844107147444 0.086390474246296228 -0.026903830982666965 0.10152015648003694 -0.028428972632863377 0.10582600110229506 -0.01178938276278077 -0.00014426369173310298 0.21662634131262257 0.97027460105774943 0.060321531521425512 0.1716207845353861
leaf_weight=291.89223953709006 44.540714003145695 2190.5799459610134 340.39417281374335 346.12870899122208 181.05566666927189 92.443051748909056 63.374151155352592 49.381425227038562 131.89237831626087 170.95277727302164 984.97014805022627 275.65453621931374 2.5803402028977867 0.635927497409284 98.559360315091908 9.2093078680336458
leaf_count=11333 2866 278504 12138 16640 15776 3737 6060 3242 9451 5061 91528 19564 110 34 3429 527
internal_value=0 -0.0184616 0.0348622 0.0518975 0.00120231 0.0323724 0.0334565 0.0492073 0.0125524 0.0745564 -0.0083803 0.0213263 0.117671 0.365639 0.021143 0.030281
internal_weight=0 3526.33 1747.92 999.976 1335.75 537.131 306.237 242.863 747.941 462.845 1029.51 616.049 52.5977 3.21627 444.688 190.265
internal_count=480000 398647 81353 40200 120143 23806 25749 19689 41153 16394 94394 31702 3386 144 20069 16303
cat_boundaries=0 1 2 3 4 5
cat_threshold=1 10 8 10 4
is_linear=0
shrinkage=0.05


Tree=11
num_leaves=17
num_cat=4
split_feature=17 25 16 18 3 14 6 1 26 25 12 2 26 21 1 15
split_gain=1188.45 314.085 244.02 150.733 170.426 144.189 130.934 126.327 111.949 108.562 93.6253 89.864 82.1848 96.3827 82.6052 102.451
threshold=0 1 1.0000000180025095e-35 1.0000000180025095e-35 40.500000000000007 2 0.11398727644357561 0.25155013204896876 1.0000000180025095e-35 3 1.5000000000000002 1.0000000180025095e-35 1.0000000180025095e-35 1.0000000180025095e-35 0.27403059671396418 246.50000000000003
decision_type=1 1 2 2 2 9 2 2 2 1 2 2 2 2 2 2
left_child=2 3 9 4 -2 6 7 -4 10 -1 -6 12 13 14 15 -3
right_child=1 11 5 -5 8 -7 -8 -9 -10 -11 -12 -13 -14 -15 -16 -17
leaf_value=0.031147604823879876 -0.009534243473831543 0.028027375331436261 0.093396792492942374 -0.017600954958167169 0.12229842776019076 0.0022326930462026719 0.010418683011471681 0.049366664092422297 0.013903556072262882 -0.0042595402710293735 0.045612504993953598 -0.04254808437948205 -0.031281865321390288 -0.038148355137188429 -0.01050389107769001 0.30758803521396055
leaf_weight=408.6310459729284 282.64328261464834 149.10613641887903 272.33366821426898 468.63229395821691 57.547661970369518 148.3464041640982 120.11763584148139 405.42568556591868 178.87320248689502 449.63404369074851 129.07165695633739 757.69264577701688 923.20928697101772 191.81993366871029 321.99308243021369 3.3508652485907069
leaf_count=14605 26347 18367 8112 44019 3851 6657 6050 16703 15183 29226 9423 97120 118797 24597 40558 385
internal_value=0 -0.0178872 0.03204 0.00396628 0.0196216 0.0497289 0.0578072 0.0670586 0.0421684 0.0129115 0.0692601 -0.0282576 -0.0216233 -0.00823999 0.00385195 0.0341719
internal_weight=0 3463.94 1804.49 1116.77 648.136 946.223 797.877 677.759 365.493 858.265 186.619 2347.17 1589.48 666.27 474.45 152.457
internal_count=480000 398647 81353 98823 54804 37522 30865 24815 28457 43831 13274 299824 202704 83907 59310 18752
cat_boundaries=0 1 2 3 4
cat_threshold=1 8 5 8
is_linear=0
shrinkage=0.05


Tree=12
num_leaves=17
num_cat=4
split_feature=17 25 18 3 12 0 3 16 13 15 2 27 21 3 15 27
split_gain=1059.99 297.889 218.993 187.641 149.476 136.111 124.219 109.215 103.252 92.6028 79.1667 76.9916 76.4011 75.3085 72.0596 70.7315
threshold=0 1 1.0000000180025095e-35 34.500000000000007 1.5000000000000002 0.8500000000000002 44.500000000000007 1.0000000180025095e-35 2.5000000000000004 213.50000000000003 1.0000000180025095e-35 2 1.0000000180025095e-35 135.50000000000003 280.50000000000006 3
decision_type=1 1 2 2 2 2 2 2 2 2 2 9 2 2 2 9
left_child=2 4 3 -1 6 12 -2 -8 -4 -6 11 -3 13 -5 -10 -7
right_child=1 10 8 5 9 15 7 -9 14 -11 -12 -13 -14 -15 -16 -17
leaf_value=-0.0043970068980106591 -0.003892951417137545 -0.024900439134921282 0.05416550571012696 0.061742130134501444 -0.015254532311612444 0.067937481755876994 0.016276704257973427 0.090063540319047744 -0.0066384396029991674 0.029667336653033113 -0.043719302275094254 0.038627115042085908 -0.0084311481928015831 0.022663512533363614 0.053075662223434718 0.15752718080008996
leaf_weight=178.87964221462607 163.88499066140503 1363.9065077719279 99.678717045113444 257.2815566835925 839.52404255326837 395.37183740921319 96.154821968637407 104.8148250458762 526.34570067655295 132.88082911539823 653.92623381363228 49.421701808460057 84.506674973294139 236.71010778751224 55.886011316441 23.331199878826737
leaf_count=8558 15630 182913 4279 9119 78634 12420 7850 8104 30219 9925 89348 6243 5133 8774 2434 417
internal_value=0 -0.01732 0.0295279 0.0427578 0.00111542 0.0512165 0.0284143 0.0547599 0.00714349 -0.00911588 -0.0291934 -0.022679 0.0355011 0.0430165 -0.00090673 0.0729296
internal_weight=0 3404.51 1857.99 1176.08 1337.26 997.201 364.855 200.97 681.91 972.405 2067.25 1413.33 578.498 493.992 582.232 418.703
internal_count=480000 398647 81353 44421 120143 35863 31584 15954 36932 88559 278504 189156 23026 17893 32653 12837
cat_boundaries=0 1 2 3 4
cat_threshold=1 10 4 4
is_linear=0
shrinkage=0.05


Tree=13
num_leaves=17
num_cat=2
split_feature=17 25 21 2 12 1 2 21 1 16 0 2 22 15 18 26
split_gain=946.474 281.207 200.219 177.309 161.935 148.55 93.2642 93.3797 90.7357 83.6856 79.7393 78.6907 77.2948 74.4067 71.7348 76.781
threshold=0 1 1.0000000180025095e-35 1.0000000180025095e-35 2.5000000000000004 0.33247198424484886 1.0000000180025095e-35 1.0000000180025095e-35 0.38587259125256718 1.0000000180025095e-35 0.75000000000000011 1.0000000180025095e-35 3.5000000000000004 213.50000000000003 1.0000000180025095e-35 1.0000000180025095e-35
decision_type=1 1 2 2 2 2 2 2 2 2 2 2 2 2 2 2
left_child=2 5 3 4 12 6 7 9 -6 -2 -11 14 -1 -7 15 -3
right_child=1 11 -4 -5 8 13 -8 -9 -10 10 -12 -13 -14 -15 -16 -17
leaf_value=0.045933547596202808 0.015153783205497271 0.0061636153388633184 -0.0080329822770574179 -0.012934477357838096 0.042873966107057904 -0.017617648007491143 -0.013349576220129347 -0.019755514835159877 0.008599812103979575 0.041478791833924514 0.10941226213600562 -0.043410518816026172 0.082044480934353015 0.024281630034948945 -0.03486953215753915 -0.025661561528745314
leaf_weight=396.09568727854639 117.39657708443701 333.38170685479417 329.64830198138952 173.13718689233065 377.30733889620751 728.98470255266875 128.91690419986844 61.568435752764344 395.52632190845907 104.63214165344834 73.567721693776548 626.348070230335 236.76788336597383 123.98001297283918 609.62808574642986 439.18199708778411
leaf_count=13863 8721 44833 21082 9126 13166 71202 12175 5610 17992 8050 4649 89348 6124 9736 83526 60797
internal_value=0 -0.0167574 0.0272664 0.0348094 0.0406899 0.00103656 0.023105 0.0362631 0.0253329 0.047931 0.0695243 -0.0285666 0.0594434 -0.0115275 -0.0220467 -0.0119282
internal_weight=0 3347.59 1908.48 1578.83 1405.7 1339.05 486.082 357.165 772.834 295.596 178.2 2008.54 632.864 852.965 1382.19 772.564
internal_count=480000 398647 81353 60271 51145 120143 39205 27030 31158 21420 12699 278504 19987 80938 189156 105630
cat_boundaries=0 1 2
cat_threshold=1 10
is_linear=0
shrinkage=0.05


Tree=14
num_leaves=17
num_cat=2
split_feature=17 25 26 4 26 13 18 15 2 12 1 3 21 21 26 1
split_gain=847.009 265.179 187.51 138.089 133.152 109.629 104.139 99.7661 87.0489 82.4766 82.109 80.9989 78.7352 66.3064 71.6741 65.369
threshold=0 1 1.0000000180025095e-35 55.000000000000007 1.0000000180025095e-35 2.5000000000000004 1.0000000180025095e-35 248.50000000000003 1.0000000180025095e-35 2.5000000000000004 0.31365906283374384 28.500000000000004 1.0000000180025095e-35 1.0000000180025095e-35 1.0000000180025095e-35 0.20886621376102801
decision_type=1 1 2 2 2 2 2 2 2 2 2 2 2 2 2 2
left_child=2 4 3 7 5 -2 11 9 10 -1 13 -7 15 14 -3 -4
right_child=1 8 12 -5 -6 6 -8 -9 -10 -11 -12 -13 -14 -15 -16 -17
leaf_value=0.040920551305237411 0.092296204521009395 0.03051157099995529 0.037904591129316149 0.087797098447033983 -0.012767752925297762 -0.0072157216831540312 -0.016717784193712327 0.061692586005458551 -0.041492912423022832 0.0085591503299640923 -0.02842244339175462 0.048484008587020955 -0.0283721403954546 -0.035841485094398183 -0.01224984267327551 0.0039266535750938567
leaf_weight=375.53851773124188 49.821596397086978 171.04544957028702 200.1533583747223 126.14556550234556 592.45538434851915 93.37156679853797 172.75183345098048 225.05599474161863 671.28694292204455 413.86949771642685 972.50423666276038 216.86780100222677 131.50011307187378 123.89996376261115 229.44503759406507 483.47876300383359
leaf_count=12615 3001 20803 7792 3408 56337 8531 15972 5938 97120 18239 133067 14982 9451 17222 31612 23910
internal_value=0 -0.0162074 0.0252441 0.0384611 0.00351183 0.0216796 0.0143954 0.0323263 -0.0264106 0.0239542 -0.0198234 0.0317203 0.00705928 -0.00387604 0.00601313 0.0138747
internal_weight=0 3293.45 1955.74 1140.61 1125.27 532.813 482.991 1014.46 2168.18 789.408 1496.89 310.239 815.132 524.39 400.49 683.632
internal_count=480000 398647 81353 40200 98823 42486 39485 36792 299824 30854 202704 23513 41153 69637 52415 31702
cat_boundaries=0 1 2
cat_threshold=1 8
is_linear=0
shrinkage=0.05


Tree=15
num_leaves=17
num_cat=7
split_feature=17 25 16 0 14 27 21 0 27 25 2 15 27 1 1 6
split_gain=759.146 251.91 177.412 135.069 107.979 94.3217 90.5557 86.6433 86.0112 82.9792 77.3057 71.9529 71.7221 68.3987 63.6792 62.4977
threshold=0 1 1.0000000180025095e-35 0.8500000000000002 2 3 1.0000000180025095e-35 0.8500000000000002 4 5 1.0000000180025095e-35 201.50000000000003 6 0.23318167032130177 0.31365906283374384 6.8160828426242199
decision_type=1 1 2 2 9 9 2 2 9 1 2 2 9 2 2 2
left_child=2 3 9 8 5 7 11 -4 -2 -1 12 -5 14 -10 -3 -9
right_child=1 10 4 6 -6 -7 -8 15 13 -11 -12 -13 -14 -15 -16 -17
leaf_value=0.022600525957856096 0.056960141711221837 -0.0080278126137208125 0.026758886512233706 0.026536942726480023 -0.0017014032026466547 0.10491202539225464 -0.02581324597819265 0.067884905084711511 0.011039178015215374 -0.0070221943874961756 -0.042774852992134182 0.086521408553473678 0.038072344844729107 -0.01911915359418917 -0.03138901299639775 0.0072114256060479181
leaf_weight=453.97797058522701 48.631166944280267 451.1524780485779 501.50605503562838 193.43398151453584 159.81484372168779 60.020832318812609 60.59390576928854 298.00528480578214 255.15697103086859 477.35627901088446 576.02585840038955 67.417237968184054 49.729614510200918 714.38511054776609 825.39039847487584 49.491803592070937
leaf_count=14605 2866 63195 19266 15983 6657 1194 6060 8354 21153 29226 89348 3706 6243 70375 119718 2051
internal_value=0 -0.0156664 0.0234201 0.000985744 0.0374375 0.0438548 0.0292493 0.0400549 -0.00792761 0.00758464 -0.0273368 0.04204 -0.0208378 -0.0111823 -0.0231328 0.0592436
internal_weight=0 3241.92 2000.17 1339.62 1068.84 909.024 321.445 849.003 1018.17 931.334 1902.3 260.851 1326.27 969.542 1276.54 347.497
internal_count=480000 398647 81353 120143 37522 30865 25749 29671 94394 43831 278504 19689 189156 91528 182913 10405
cat_boundaries=0 1 2 3 4 5 6 7
cat_threshold=1 10 5 4 8 8 4
is_linear=0
shrinkage=0.05


Tree=16
num_leaves=17
num_cat=3
split_feature=17 25 18 3 2 18 4 11 4 25 2 18 0 15 1 4
split_gain=681.366 237.015 162.098 131.598 130.072 141.473 126.767 104.658 83.1366 79.833 76.4897 72.103 76.981 77.9095 192.543 175.303
threshold=0 1 1.0000000180025095e-35 34.500000000000007 1.0000000180025095e-35 1.0000000180025095e-35 45.000000000000007 4235.7819749405908 55.000000000000007 2 1.0000000180025095e-35 1.0000000180025095e-35 0.8500000000000002 246.50000000000003 0.13702847757174377 45.000000000000007
decision_type=1 1 2 2 2 2 2 2 2 1 2 2 2 2 2 2
left_child=2 4 3 -1 5 6 -2 -5 -9 -4 11 12 -3 -14 15 -15
right_child=1 10 9 7 -6 -7 -8 8 -10 -11 -12 -13 13 14 -16 -17
leaf_value=-0.0064971444999014742 0.014950525977690012 -0.017331574069572721 0.01921151229994331 0.066223478604646724 -0.024365976064431284 -0.012352077286507066 0.074610015634984886 0.025350076428344866 0.078820011357332978 -0.013398119415354551 -0.04243542875499972 -0.033637100563865596 0.016255610035447832 0.48974342216337119 0.095630584439170246 2.2226232851629315
leaf_weight=186.51505545992404 463.11104670725763 605.65317520080134 366.42066536936909 266.45958651509136 368.69554971437901 398.97562685748562 110.23496156465262 777.55118972435594 80.194121861830354 364.9905346268788 552.20605883747339 565.61928877606988 121.60389819182456 0.55538750998675723 5.8224470699205995 0.19796908041462302
leaf_count=8558 37335 87211 12939 8187 37230 38361 7217 26029 1647 23993 89348 83526 17487 70 839 23
internal_value=0 -0.0151354 0.0217693 0.0323989 0.000915296 0.0105111 0.026421 0.0388521 0.0303492 0.00301806 -0.0267021 -0.0202217 -0.00988149 0.0253204 0.192952 0.945114
internal_weight=0 3192.68 2042.13 1310.72 1341.02 972.322 573.346 1124.2 857.745 731.411 1851.66 1299.45 733.833 128.18 6.5758 0.753357
internal_count=480000 398647 81353 44421 120143 82913 44552 35863 27676 36932 278504 189156 105630 18419 932 93
cat_boundaries=0 1 2 3
cat_threshold=1 10 8
is_linear=0
shrinkage=0.05


Tree=17
num_leaves=17
num_cat=4
split_feature=17 25 21 2 27 12 18 3 16 4 1 27 11 15 2 1
split_gain=615.134 209.588 164.856 155.54 130.591 127.001 116.974 87.1585 83.1038 76.2843 71.0553 70.4335 68.0695 62.5744 57.0692 59.6384
threshold=0 1 1.0000000180025095e-35 1.0000000180025095e-35 2 1.5000000000000002 1.0000000180025095e-35 46.500000000000007 1.0000000180025095e-35 55.000000000000007 0.1767166881888407 3 4244.7523792747697 270.50000000000006 1.0000000180025095e-35 0.31365906283374384
decision_type=1 1 2 2 9 2 2 2 2 2 2 9 2 2 2 2
left_child=2 5 3 4 6 7 9 -2 -9 12 -7 14 -1 -8 15 -3
right_child=1 11 -4 -5 -6 10 13 8 -10 -11 -12 -13 -14 -15 -16 -17
leaf_value=0.055091166234265666 -0.002565346968437107 -0.0076604066103749856 -0.01122810379226854 -0.015508040203086246 0.085219327001575279 0.015531892978419962 0.00035395573058427378 0.012055638686454378 0.076063467275746796 0.080517971972829117 -0.017282018399877107 0.024840979972564663 0.024393089417639138 0.05089767941834894 -0.042931111535059518 -0.031095696278225352
leaf_weight=246.58265110012144 160.34673163248226 422.6459854952991 363.37139172200114 203.90334424888715 103.31606827722862 213.96028376417235 434.24180940818042 93.723060346208513 110.49481167923659 91.329634684138 720.60120825842023 63.796787575818598 674.64314578007907 71.288189363200217 495.36134074442089 758.97111164173111
leaf_count=7643 15590 60676 24100 12730 2161 16684 22398 7420 7510 1658 69206 8423 21876 2368 83700 115857
internal_value=0 -0.0152553 0.0194387 0.0256501 0.0308261 -5.40075e-06 0.0271243 0.0250248 0.0466879 0.0369311 -0.00976954 -0.0265711 0.03261 0.00748147 -0.0286854 -0.0227133
internal_weight=0 3039.9 2188.68 1825.3 1621.4 1299.13 1518.09 364.565 204.218 1012.56 934.561 1740.78 921.226 505.53 1676.98 1181.62
internal_count=480000 385066 94934 70834 58104 116410 55943 30520 14930 31177 85890 268656 29519 24766 260233 176533
cat_boundaries=0 1 2 3 4
cat_threshold=17 10 4 4
is_linear=0
shrinkage=0.05


Tree=18
num_leaves=17
num_cat=1
split_feature=17 26 21 13 26 15 13 3 18 18 16 6 1 21 28 11
split_gain=553.877 202.429 180.61 167.298 157.002 112.158 109.044 81.1389 80.7222 74.1429 75.6308 68.9992 74.9792 67.2664 63.9991 59.9071
threshold=0 1.0000000180025095e-35 1.0000000180025095e-35 3.5000000000000004 1.0000000180025095e-35 225.50000000000003 3.5000000000000004 28.500000000000004 1.0000000180025095e-35 1.0000000180025095e-35 1.0000000180025095e-35 0.11398727644357561 0.41737229376070462 1.0000000180025095e-35 4.5000000000000009 3627.1423694140044
decision_type=1 2 2 2 2 2 2 2 2 2 2 2 2 2 2 2
left_child=4 2 3 8 6 7 -1 -5 -2 10 -9 12 14 -6 -8 -12
right_child=1 -3 -4 5 13 -7 11 9 -10 -11 15 -13 -14 -15 -16 -17
leaf_value=0.056786087370853958 0.10655931956853411 -0.026406849843709224 -0.033748266292689295 -0.026128826245875255 0.0082132503196397262 0.062211799896924116 0.027703842626781973 -0.0048590026139271551 0.024250044346730226 -0.017721720367268289 0.14491658680014927 -0.006861584106320053 0.012123313420902671 -0.029232733282119366 0.067549603752656534 0.033306089414125321
leaf_weight=284.53869714401662 59.80891705211252 1663.8364856438711 308.92779139336199 255.33259051758796 784.88698041625321 72.410058602690697 280.41769665665925 167.3476320495829 59.343325281515718 190.98944112006575 12.775339747313408 174.37035016249865 402.44398480700329 141.56035680091009 157.3053340264596 204.12458888627589
leaf_count=7559 4841 227736 41821 34821 38407 5695 8399 18157 5795 23751 1329 8823 15786 11050 4910 21120
internal_value=0 -0.0147309 -0.000246522 0.009879 0.0181359 0.00253092 0.0294324 -0.00267214 0.0655655 0.00773967 0.0203952 0.0217607 0.0277011 0.00249154 0.0420233 0.0398799
internal_weight=0 2994.9 1331.06 1022.13 2225.52 902.98 1299.08 830.57 119.152 575.237 384.248 1014.54 840.167 926.447 437.723 216.9
internal_count=480000 385066 157330 115509 94934 104873 45477 99178 10636 64357 40606 37918 29095 49457 13309 22449
cat_boundaries=0 1
cat_threshold=17
is_linear=0
shrinkage=0.05


Tree=19
num_leaves=17
num_cat=4
split_feature=17 25 0 20 21 22 2 14 26 18 4 21 13 27 2 4
split_gain=499.315 196.264 150.605 108.19 81.6012 80.7491 79.7924 77.7169 76.0849 71.1364 71.2658 70.5474 70.0483 65.3694 62.8759 61.8206
threshold=0 1 0.8500000000000002 1.0000000180025095e-35 1.0000000180025095e-35 3.5000000000000004 1.0000000180025095e-35 2 1.0000000180025095e-35 1.0000000180025095e-35 55.000000000000007 1.0000000180025095e-35 4.5000000000000009 3 1.0000000180025095e-35 55.000000000000007
decision_type=1 1 2 2 2 2 2 9 2 2 2 2 2 9 2 2
left_child=2 3 4 12 6 -4 7 13 11 10 -5 14 -2 -1 -3 -15
right_child=1 8 5 9 -6 -7 -8 -9 -10 -11 -12 -13 -14 15 -16 -17
leaf_value=0.07918664237926186 0.082398787503974946 0.0061141418775543304 0.020163035705546038 0.0018648227372503299 -0.021898159060769962 0.050406206247303666 -0.025238334513922014 -0.015154014027829749 -0.032841058529354525 -0.023733927307727321 0.092362583742986171 -0.037953046315011681 0.017788155414784585 0.014356141349264046 -0.030588124388279965 0.058798368785862344
leaf_weight=48.186237656511366 52.299419335089624 434.15184757392853 529.61137445224449 457.48811157140881 213.83976045856252 378.4085401953198 129.18000690545887 159.84853502502665 1072.4472699393518 339.46580180805176 22.840424259193242 202.08329180069268 211.98352941405028 714.09581458708271 159.58451895322651 87.879230553749949
leaf_count=1014 3470 57360 21198 38722 15256 10757 8644 7689 173255 34482 1155 32291 17825 27979 26506 2397
internal_value=0 -0.0142221 0.0169395 0.00272932 0.00644306 0.0327666 0.0117631 0.0164955 -0.0240205 -0.0062139 0.00616814 -0.0124357 0.0305741 0.0223615 -0.0037507 0.0192261
internal_weight=0 2952.34 2261.05 1084.08 1353.03 908.02 1139.19 1010.01 1868.27 819.794 480.329 795.82 264.283 850.161 593.736 801.975
internal_count=480000 385066 94934 95654 62979 31955 47723 39079 289412 74359 39877 116157 21295 31390 83866 30376
cat_boundaries=0 1 2 3 4
cat_threshold=17 8 5 8
is_linear=0
shrinkage=0.05


Tree=20
num_leaves=17
num_cat=2
split_feature=3 0 21 26 18 14 27 3 3 2 16 15 13 5 1 1
split_gain=461.601 361.25 177.691 171.479 134.956 118.978 107.032 93.6601 80.5385 80.2235 78.699 68.8141 65.9982 57.0407 56.0027 52.3488
threshold=42.500000000000007 0.8500000000000002 1.0000000180025095e-35 1.0000000180025095e-35 1.0000000180025095e-35 0 1 133.50000000000003 120.50000000000001 1.0000000180025095e-35 1.0000000180025095e-35 246.50000000000003 2.5000000000000004 1.4619598202596789 0.32780245616066767 0.17022592751238502
decision_type=2 2 2 2 2 9 9 2 2 2 2 2 2 2 2 2
left_child=9 2 3 5 8 6 -2 12 10 -1 -3 -6 -8 -12 -5 -14
right_child=1 4 -4 14 11 -7 7 -9 -10 -11 13 -13 15 -15 -16 -17
leaf_value=-0.0099925658643118496 0.087896733071437527 0.035473428269883631 -0.030065690338402035 0.0056054992699819733 -0.001516614355521769 -0.015530442520468821 0.10505319177980227 0.0044251276912598845 0.030315290537627999 -0.032128598978742505 0.077610389679956343 0.051219420798378192 0.0660912881876521 0.19229488764322944 -0.019246771243750568 0.021936394957308772
leaf_weight=728.69801977509633 67.785155908670276 142.16505154129118 438.43398907314986 360.9619541852735 304.54676946392283 196.27889297157526 34.882707736454904 373.50279175629839 385.35895652137697 933.80865439353511 183.68568356847391 77.626243035309017 89.569711912423372 11.52225721767172 609.35018098540604 267.8870660495013
leaf_count=79052 2603 8160 49880 32350 25283 16433 1447 21804 14432 126056 8620 3179 4650 529 65096 20426
internal_value=0 0.00950814 -0.00123773 0.00508116 0.0332255 0.0192912 0.0273482 0.0223461 0.0459326 -0.0224261 0.0637712 0.00919503 0.0394067 0.0843797 -0.0100016 0.0330005
internal_weight=0 3543.56 2438.65 2000.22 1104.9 1029.91 833.627 765.842 722.732 1662.51 337.373 382.173 392.339 195.208 970.312 357.457
internal_count=480000 274892 214689 164809 60203 67363 50930 48327 31741 205108 17309 28462 26523 9149 97446 25076
cat_boundaries=0 1 2
cat_threshold=5 8
is_linear=0
shrinkage=0.05


Tree=21
num_leaves=17
num_cat=2
split_feature=15 2 1 27 14 21 6 18 4 21 0 5 16 5 0 6
split_gain=440.23 291.434 250.727 138.819 126.897 114.807 109.835 107.022 86.5412 81.8171 72.9229 62.9781 56.3637 52.0287 50.1514 48.8833
threshold=228.50000000000003 1.0000000180025095e-35 0.30455035780542289 0 1 1.0000000180025095e-35 0.11398727644357561 1.0000000180025095e-35 45.000000000000007 1.0000000180025095e-35 0.75000000000000011 0.92572258966864174 1.0000000180025095e-35 0.92572258966864174 0.75000000000000011 1.1211851449999755
decision_type=2 2 2 9 9 2 2 2 2 2 2 2 2 2 2 2
left_child=1 2 4 7 6 10 9 8 14 11 -2 12 -1 15 -4 -12
right_child=5 -3 3 -5 -6 -7 -8 -9 -10 -11 13 -13 -14 -15 -16 -17
leaf_value=0.016906894617813261 0.020305271404919261 -0.032449693918809995 -0.021203336328781248 0.041311929337245624 -0.011870421695120143 -0.0073358167359111482 -0.0073998679414072031 -0.029890428086230564 0.024415013003639574 -0.0071914490342667274 0.054247335254656671 0.096832645354630431 0.046448427706969414 0.13323471702663719 0.0027710976607368144 0.0017888855703248952
leaf_weight=264.58193058473989 316.66015144903213 916.83101995754987 564.98037734301761 115.05382883548737 316.62144144019112 164.86564593296498 217.23517771577463 749.97246737033129 199.01768136397004 112.30662504816428 378.68130354350433 43.741930503863841 414.2821469893679 18.727498308755457 355.32415329944342 50.308684611693025
leaf_count=17645 16652 129152 64469 6721 28793 13700 19775 86797 13558 11302 11802 2454 24098 615 30033 2434
internal_value=0 -0.00746876 -0.000638316 -0.0119937 0.015824 0.0305066 0.0240423 -0.0152746 -0.00548172 0.0325112 0.0386687 0.0386817 0.0349348 0.0516567 -0.0119469 0.0480954
internal_weight=0 4269.95 3353.12 1984.35 1368.77 929.243 1052.15 1869.29 1119.32 834.913 764.378 722.606 678.864 447.717 920.305 428.99
internal_count=480000 434797 305645 201578 104067 45203 75274 194857 108060 55499 31503 44197 41743 14851 94502 14236
cat_boundaries=0 1 2
cat_threshold=4 5
is_linear=0
shrinkage=0.05


Tree=22
num_leaves=17
num_cat=3
split_feature=25 0 17 3 21 13 18 12 1 2 18 13 27 23 6 20
split_gain=405.807 202.53 155.901 126.25 99.5451 88.5003 82.413 77.3399 70.8267 69.8143 66.9905 65.3069 70.9571 56.312 51.5109 56.9045
threshold=0 0.8500000000000002 1 40.500000000000007 1.0000000180025095e-35 2.5000000000000004 1.0000000180025095e-35 2.5000000000000004 0.31365906283374384 1.0000000180025095e-35 1.0000000180025095e-35 3.5000000000000004 2 1.0000000180025095e-35 0.11398727644357561 26.500000000000004
decision_type=1 2 1 2 2 2 2 2 2 2 2 2 9 2 2 2
left_child=1 3 8 -1 5 -5 13 -3 -2 10 11 12 -4 -7 15 -9
right_child=2 7 9 4 -6 6 -8 14 -10 -11 -12 -13 -14 -15 -16 -17
leaf_value=-0.019625251323587539 0.017296219397370537 0.048625672087131026 0.29850795724275747 0.054866129987241608 -0.024047996375976374 0.019583331132428213 -0.0092088697994533696 0.015343182622680494 -0.010580050902111556 -0.040700320691771825 -0.03157397875836257 -0.011637083197018359 0.034909904475934707 0.10873887872446886 -0.011798771996904709 0.055136177501052798
leaf_weight=454.92517432151362 410.20360225532204 397.61001094756648 2.7198884906247258 134.42389342701063 172.04605100955814 584.60765726771206 316.93821115512401 301.54916545189917 512.59782268665731 455.14188804104924 504.37026243237779 651.00952144339681 41.609267114661634 18.264372174162418 105.47000170499086 127.96551853977144
leaf_count=44067 18061 12669 273 4059 14447 28537 22405 13869 30914 89348 83526 99383 5974 747 6593 5128
internal_value=0 0.0131861 -0.0147196 0.0028705 0.011216 0.0169709 0.0114328 0.0319237 0.00179209 -0.0238825 -0.0177012 -0.00763853 0.0510834 0.0222844 0.0195105 0.0271987
internal_weight=0 2613.8 2577.65 1681.21 1226.28 1054.23 919.81 932.595 922.801 1654.85 1199.71 695.339 44.3292 602.872 534.985 429.515
internal_count=480000 152521 327479 114262 70195 55748 51689 38259 48975 278504 189156 105630 6247 29284 25590 18997
cat_boundaries=0 1 2 3
cat_threshold=10 1 8
is_linear=0
shrinkage=0.05


Tree=23
num_leaves=17
num_cat=2
split_feature=3 0 21 26 21 14 6 12 3 1 26 22 1 15 11 25
split_gain=376.621 284.371 161.595 147.483 111.344 95.5188 81.1845 76.315 72.3385 62.6187 59.0029 53.5567 53.1275 52.5816 47.1375 43.9191
threshold=38.500000000000007 0.8500000000000002 1.0000000180025095e-35 1.0000000180025095e-35 1.0000000180025095e-35 0 1.0000000180025095e-35 1.5000000000000002 137.50000000000003 0.17330835410757392 1.0000000180025095e-35 3.5000000000000004 0.32780245616066767 194.50000000000003 4231.1296497826579 1
decision_type=2 2 2 2 2 9 2 2 2 2 2 2 2 2 2 1
left_child=10 2 3 5 7 6 8 -3 11 -9 15 -2 -5 -11 -13 -1
right_child=1 4 -4 12 -6 -7 -8 9 -10 13 -12 14 -14 -15 -16 -17
leaf_value=0.0024231968030542315 0.03435303719880322 0.052401732483264234 -0.029619579629758797 0.0045493741411318598 -0.0049060269565433306 -0.014429842856908555 -0.0089146909735928342 0.047694166626391789 0.012863058343093045 -0.0032722885880522297 -0.031768609911840363 0.14672162298682986 -0.019042197529042435 0.031731579514421453 0.059495318883156359 -0.02359822709317845
leaf_weight=311.73075904976577 317.79531076317653 375.80653939349577 434.66695500677451 388.06655886536464 216.98964254977182 200.99113703006878 158.34256959613413 190.87237145891413 325.36959845526144 226.79406998679042 781.9060932090506 19.258210606873035 619.76719642197713 203.59884385252371 79.127437528688461 332.23524034069851
leaf_count=24692 20714 13106 52993 34508 18873 17406 13022 7319 16571 17194 113419 563 69200 7496 2739 50185
internal_value=0 0.00764321 -0.00186023 0.00386177 0.0275523 0.0165137 0.0233261 0.0346162 0.0305249 0.0238576 -0.0225382 0.044333 -0.00995826 0.0132864 0.0765692 -0.0113306
internal_weight=0 3757.45 2543.38 2108.72 1214.06 1100.88 899.893 997.072 741.551 621.265 1425.87 416.181 1007.83 430.393 98.3856 643.966
internal_count=480000 291704 227716 174723 63988 71015 53609 45115 40587 32009 188296 24016 103708 24690 3302 74877
cat_boundaries=0 1 2
cat_threshold=5 10
is_linear=0
shrinkage=0.05


Tree=24
num_leaves=17
num_cat=1
split_feature=4 2 18 18 6 0 13 14 1 16 11 16 11 1 22 12
split_gain=363.213 203.023 196.737 158.712 137.254 117.852 80.5201 80.4578 62.3231 58.7289 54.082 53.807 50.3007 47.4224 47.1229 40.3684
threshold=45.000000000000007 1.0000000180025095e-35 1.0000000180025095e-35 1.0000000180025095e-35 1.0000000180025095e-35 0.75000000000000011 3.5000000000000004 0 0.17022592751238502 1.0000000180025095e-35 4280.2320233261271 1.0000000180025095e-35 4231.1296497826579 0.32309275882781419 3.5000000000000004 1.5000000000000002
decision_type=2 2 2 2 2 2 2 9 2 2 2 2 2 2 2 2
left_child=1 2 4 7 5 8 14 11 -1 -7 -11 -2 -13 15 -5 -4
right_child=3 -3 13 6 -6 9 -8 -9 -10 10 -12 12 -14 -15 -16 -17
leaf_value=0.026624899917693248 0.02725611125383768 -0.030561631371358949 0.01999923490562917 0.01049824145054858 -0.018604153951055531 0.011930784494653362 -0.011568576418096841 -0.0019513117179999013 -0.0063654827925602678 0.067480743052544687 0.028373287686781202 0.095207816458254713 0.047994045657883594 -0.02941446707037905 0.057415727960220986 -0.01661013001345344
leaf_weight=182.86681140726432 259.03818506142125 824.89839588478208 101.82025235239416 174.31053881859407 424.70994877815247 307.44694566307589 379.86634179251269 120.50013603549451 659.26126954192296 130.05722066713497 276.03500530403107 69.882101396564394 292.67965637939051 605.53824809379876 77.230157643556595 289.10908725485206
leaf_count=12336 13077 123264 8962 13701 43297 18248 34894 8002 63958 6196 14691 2520 12105 71542 3597 29610
internal_value=0 -0.00861191 -0.00252953 0.0213873 0.00658833 0.0134661 0.00296111 0.037065 0.000798328 0.0284167 0.040898 0.0439528 0.0570943 -0.0206503 0.0249032 -0.00707497
internal_weight=0 3801.74 2976.84 1373.51 1980.38 1555.67 631.407 742.1 842.128 713.539 406.092 621.6 362.562 996.468 251.541 390.929
internal_count=480000 392104 268840 87896 158726 115429 52192 35704 76294 39135 20887 27702 14625 110114 17298 38572
cat_boundaries=0 1
cat_threshold=5
is_linear=0
shrinkage=0.05


Tree=25
num_leaves=17
num_cat=1
split_feature=25 2 12 26 22 1 21 2 15 1 16 12 1 15 18 15
split_gain=338.358 162.617 146.446 135.607 94.6082 91.8898 71.6896 64.347 61.4845 54.6627 53.2258 50.8663 47.4041 46.1298 37.847 37.4742
threshold=0 1.0000000180025095e-35 2.5000000000000004 1.0000000180025095e-35 3.5000000000000004 0.40422722472518652 1.0000000180025095e-35 1.0000000180025095e-35 198.50000000000003 0.31365906283374384 1.0000000180025095e-35 2.5000000000000004 0.4459030698523932 294.50000000000006 1.0000000180025095e-35 38.500000000000007
decision_type=1 2 2 2 2 2 2 2 2 2 2 2 2 2 2 2
left_child=1 2 10 4 6 8 7 12 -4 -5 -1 15 14 -7 -2 -6
right_child=3 -3 5 9 11 13 -8 -9 -10 -11 -12 -13 -14 -15 -16 -17
leaf_value=0.018567155612432332 0.029417528839995478 -0.016754914863496794 0.0085320409527743987 -0.01180206853463734 0.40115632518067507 -0.010061343297610308 -0.034273543202531065 -0.032680777056851781 0.041119175368525593 -0.032958541994946342 0.042751976204882199 0.0073787347028029795 -0.0096645107304866029 0.039472650886819317 -0.0066371122719099188 0.05180268790236512
leaf_weight=398.83884522086009 230.69146120501682 419.43358552921563 406.30245392443612 488.62920373817906 0.77383595332503219 628.4820164302364 213.19356185570359 135.4446123810485 224.85393913974985 813.80716455820948 529.55528157530352 139.82641662377864 284.87549395347014 50.801027675159276 106.33708821702749 95.451559945940971
leaf_count=17329 16611 41283 22688 65751 71 45088 31629 24168 6426 129540 18270 11727 31638 1437 10501 5843
internal_value=0 0.0117723 0.0171693 -0.0137782 -0.00175626 0.0064057 -0.00866105 -0.00145114 0.0201414 -0.0250214 0.0323622 0.0266332 0.00535037 -0.00635688 0.0180418 0.0546122
internal_weight=0 2658.27 2238.83 2509.03 1206.59 1310.44 970.542 757.349 631.156 1302.44 928.394 236.052 621.904 679.283 337.029 96.2254
internal_count=480000 152521 111238 327479 132188 75639 114547 82918 29114 195291 35599 17641 58750 46525 27112 5914
cat_boundaries=0 1
cat_threshold=10
is_linear=0
shrinkage=0.05


Tree=26
num_leaves=17
num_cat=0
split_feature=15 26 21 13 3 2 3 6 21 16 5 1 5 13 5 1
split_gain=317.174 238.998 136.535 108.426 84.0247 82.8635 80.5855 75.5963 68.8223 65.0086 64.1533 61.5943 54.9481 58.3171 51.5309 46.6098
threshold=228.50000000000003 1.0000000180025095e-35 1.0000000180025095e-35 3.5000000000000004 28.500000000000004 1.0000000180025095e-35 138.50000000000003 1.1211851449999755 1.0000000180025095e-35 1.0000000180025095e-35 0.5179083317675669 0.48343014144812496 0.025110027516926505 4.5000000000000009 1.0907332115036019 0.22974771746776132
decision_type=2 2 2 2 2 2 2 2 2 2 2 2 2 2 2 2
left_child=1 2 3 -1 -5 8 9 10 11 -6 12 -3 13 -2 -11 -15
right_child=7 5 -4 4 6 -7 -8 -9 -10 14 -12 -13 -14 15 -16 -17
leaf_value=0.037794042639230661 0.056266062597068213 0.0013622363596678079 -0.021993467577538096 -0.019173103471049571 0.0030117846512692295 -0.037751306050145671 -0.0065189850110318375 -0.0099228302940285382 -0.037830712242964609 0.027645455246675624 0.10209215418748351 -0.020477594737419759 -0.0040312573732032165 0.049672296024244771 0.088917118606101186 0.015167382447150553
leaf_weight=305.69306249730289 195.1464860253036 683.03674192447215 389.34744961094111 287.59801885671914 310.75282120378688 459.64354216586798 424.8972039045766 134.68930215435103 245.56196089694276 417.12558485707268 30.093497427646071 612.1829572590068 116.59585745073855 132.16524221561849 37.391425376292318 377.18433446902782
leaf_count=13947 5924 64431 48148 38948 24049 79261 27000 9482 34060 28648 1113 73660 5548 4345 2645 18791
internal_value=0 -0.00664928 0.00483178 0.010688 0.00508081 -0.0191197 0.0109416 0.0248832 -0.0135615 0.0206362 0.0303909 -0.00896032 0.027763 0.033025 0.032686 0.0241207
internal_weight=0 4173.23 2172.81 1783.46 1477.77 2000.43 1190.17 985.875 1540.78 765.27 851.185 1295.22 821.092 704.496 454.517 509.35
internal_count=480000 434797 183385 135237 121290 251412 82342 45203 172151 55342 35721 138091 34608 29060 31293 23136
is_linear=0
shrinkage=0.05


Tree=27
num_leaves=17
num_cat=2
split_feature=0 2 14 21 27 4 4 16 18 18 6 5 12 22 11 1
split_gain=300.664 178.276 146.44 132.742 114.32 105.164 95.4436 93.9525 82.5519 57.1705 56.3559 51.7835 41.6981 41.1358 40.5032 37.7181
threshold=0.8500000000000002 1.0000000180025095e-35 0 1.0000000180025095e-35 1 45.000000000000007 25.000000000000004 1.0000000180025095e-35 1.0000000180025095e-35 1.0000000180025095e-35 1.0000000180025095e-35 11.467641265843387 2.5000000000000004 3.5000000000000004 4231.1296497826579 0.497382298398859
decision_type=2 2 9 2 9 2 2 2 2 2 2 2 2 2 2 2
left_child=1 2 3 4 -1 8 -6 -8 10 14 13 12 -7 15 -9 -2
right_child=5 -3 -4 -5 6 11 7 9 -10 -11 -12 -13 -14 -15 -16 -17
leaf_value=0.057204813385779388 0.026972348334327913 -0.032254860568751251 -0.025476264196180695 -0.025663006239522935 -0.016685357077641006 0.049444416245002967 -0.0043830974844357527 0.058397548360603513 -0.012444814472546075 0.0041285554307096285 -0.010255021352357228 0.16894983937361124 0.020874977855203404 0.042291519738987732 0.024503692889930824 -0.0032488844687022381
leaf_weight=109.56144334608689 261.11772191245109 661.75336363865063 586.33053421508521 355.46235142322257 407.33293575793505 231.49397543398663 585.59752469044179 112.98797734035179 333.75724383676425 288.01392935495824 150.69041933631524 7.1735716513358048 284.90334740513936 203.46176484366879 400.84898816840723 170.7627538992092
leaf_count=4401 16645 108462 67923 45398 45994 7731 45902 5976 32979 24892 13555 422 14602 6736 24839 13543
internal_value=0 -0.00887869 -0.00344351 0.00237534 0.00762142 0.0170379 0.00459463 0.0108421 0.00838907 0.0219612 0.0172353 0.0355356 0.0336823 0.0237555 0.0319566 0.0150231
internal_weight=0 3507.89 2846.14 2259.81 1904.34 1643.36 1794.78 1387.45 1119.79 801.851 786.033 523.571 516.397 635.342 513.837 431.88
internal_count=480000 373787 265325 197402 152004 106213 147603 101609 83458 55707 50479 22755 22333 36924 30815 30188
cat_boundaries=0 1 2
cat_threshold=5 8
is_linear=0
shrinkage=0.05


Tree=28
num_leaves=17
num_cat=2
split_feature=25 26 12 0 15 13 1 16 13 21 1 2 1 14 1 4
split_gain=286.213 142.864 114.877 101.864 83.0259 57.8905 55.0678 51.096 48.07 47.3915 43.1387 42.7836 40.5144 40.3333 39.9759 40.0422
threshold=0 1.0000000180025095e-35 2.5000000000000004 0.8500000000000002 197.50000000000003 3.5000000000000004 0.31365906283374384 1.0000000180025095e-35 4.5000000000000009 1.0000000180025095e-35 0.35181827950308814 1.0000000180025095e-35 0.42168980366730768 1 0.99804761741367709 45.000000000000007
decision_type=1 2 2 2 2 2 2 2 2 2 2 2 2 9 2 2
left_child=2 3 8 9 10 -5 -3 -6 -1 11 -4 13 -10 -2 -9 -16
right_child=1 6 4 5 7 -7 -8 14 12 -11 -12 -13 -14 -15 15 -17
leaf_value=0.043070589166811349 0.0077894195923389701 -0.010283348785207282 0.0053588048979953543 0.062194680681046312 -0.00035705357254178148 0.012036667523153733 -0.030843814778880527 0.030391300425793896 0.030861882568720352 -0.031317296293602935 -0.017286125856121375 -0.029687867916693561 0.0069359010411730732 -0.021594458995822959 0.068066877299449907 0.60282973927636951
leaf_weight=274.86193455057219 526.05295356409624 529.88235417054966 393.08819433907047 68.427966640796512 210.03925974620506 361.08291925210506 845.00519495131448 306.75344739062712 340.735902516637 193.56576141389087 452.30942798731849 132.4734583767131 368.05003535561264 139.38902401318774 0.82449676701798924 0.60833217296749353
leaf_count=8225 43003 69467 23775 3523 9159 29598 138074 10462 13472 30340 41228 23660 20275 15692 33 14
internal_value=0 -0.0113887 0.0122452 -0.000311862 0.00290277 0.0200276 -0.0229198 0.0186608 0.025321 -0.00912296 -0.00675681 -0.00373885 0.0184379 0.00142697 0.031622 0.29511
internal_weight=0 2795.88 2347.27 1420.99 1363.62 429.511 1374.89 518.226 983.648 991.481 845.398 797.915 708.786 665.442 308.186 1.43283
internal_count=480000 353357 126643 145816 84671 33121 207541 19668 41972 112695 65003 82355 33747 58695 10509 47
cat_boundaries=0 1 2
cat_threshold=8 5
is_linear=0
shrinkage=0.05


Tree=29
num_leaves=17
num_cat=1
split_feature=3 14 6 1 22 16 3 26 26 12 21 0 5 8 24 11
split_gain=271.84 201.773 181.257 145.227 109.849 64.5856 63.0627 59.4503 58.5132 54.7627 47.7798 46.8705 41.8177 39.7681 39.3718 36.0202
threshold=42.500000000000007 0 1.1211851449999755 0.17330835410757392 3.5000000000000004 1.0000000180025095e-35 109.50000000000001 1.0000000180025095e-35 1.0000000180025095e-35 2.5000000000000004 1.0000000180025095e-35 0.8500000000000002 0.0085579815250433518 1829.5000000000002 34.662601060278803 4165.8360720360733
decision_type=2 9 2 2 2 2 2 2 2 2 2 2 2 2 2 2
left_child=7 2 3 6 5 -5 12 10 13 -4 11 -1 -2 15 -14 -6
right_child=1 -3 9 4 8 -7 -8 -9 -10 -11 -12 -13 14 -15 -16 -17
leaf_value=-0.011637549830667981 0.088939855029010917 -0.017514024408219971 0.013211070872695359 -0.0100444234778284 0.071729528797360956 0.013260543026397235 0.025546678413067566 -0.028297912800142669 0.0093451963005215504 -0.022419684022431819 -0.035077237476062929 0.019386197297165439 0.041652232697292131 0.070608216060419837 0.20383875057115561 0.023589237544390119
leaf_weight=381.98818122688681 76.315518506802619 690.72876119147986 145.47607434215024 560.02467701211572 46.935909291729331 633.67494647111744 360.35231748828664 774.02368665253744 238.12655575200915 416.8181393481791 133.06558453012258 178.6986568858847 182.13687836937606 87.546903709881008 3.8204183294437817 225.74575202446431
leaf_count=47478 3583 68344 11987 49780 1218 47985 13691 123397 14137 44812 20174 14059 9000 2874 143 7338
internal_value=0 0.00669065 0.0123241 0.0183192 0.0110914 0.00232701 0.0391222 -0.0187712 0.0285762 -0.0132013 -0.00814223 -0.00174985 0.0577744 0.0412888 0.0449843 0.0318755
internal_weight=0 3667.7 2976.97 2414.68 1792.05 1193.7 622.625 1467.78 598.355 562.294 693.752 560.687 262.273 360.229 185.957 272.682
internal_count=480000 274892 206548 149749 123332 97765 26417 205108 25567 56799 81711 61537 12726 11430 9143 8556
cat_boundaries=0 1
cat_threshold=5
is_linear=0
shrinkage=0.05


Tree=30
num_leaves=17
num_cat=1
split_feature=2 18 4 13 6 0 17 3 16 19 5 28 24 11 20 10
split_gain=257.091 208.232 161.064 123.453 99.4828 83.4715 62.4574 55.9433 55.116 48.375 43.9862 39.8516 36.3875 36.0649 35.0422 34.4886
threshold=1.0000000180025095e-35 1.0000000180025095e-35 45.000000000000007 2.5000000000000004 1.0000000180025095e-35 0.65000000000000002 0 141.50000000000003 1.0000000180025095e-35 1.0000000180025095e-35 0.5179083317675669 4.5000000000000009 29.022728248060911 4221.7191132623657 28.500000000000004 4474.3305890267493
decision_type=2 2 2 2 2 2 1 2 2 2 2 2 2 2 2 2
left_child=1 2 4 -3 5 10 9 12 -7 -5 -1 -10 13 -4 -15 -13
right_child=-2 3 7 6 -6 8 -8 -9 11 -11 -12 15 -14 14 -16 -17
leaf_value=-0.0054162811882019811 -0.025562485909491131 0.025201708010532248 0.072180913649367864 0.011836820738203571 -0.016814768270200193 0.006417296341949397 -0.030862010108881219 0.017764232147706026 0.020770753904897347 -0.014903976131825432 0.043560471100926756 0.038612836092738065 0.11796314576448151 0.027543622958642364 0.077295493046860869 0.090401372898409604
leaf_weight=651.18550370447338 857.34232450043783 211.37286160932854 80.295506039634347 229.22451938642189 402.18157268268988 377.22441439842805 451.16862573474646 331.28395418310538 329.57553218118846 645.08154419995844 49.315159709192812 158.58465617569163 16.655722231604159 256.21335151325911 41.065218931995332 40.321408008225262
leaf_count=60476 138194 12486 3132 15371 43297 23453 69526 11017 17713 57151 4427 7209 689 12017 1691 2151
internal_value=0 0.00444033 0.0127181 -0.0102851 0.00542395 0.0109924 -0.0159442 0.0329102 0.0210165 -0.00780385 -0.00196832 0.0314373 0.0456378 0.0424473 0.0344162 0.0491112
internal_weight=0 4270.75 2733.9 1536.85 2008.39 1606.21 1325.47 725.514 905.706 874.306 700.501 528.482 394.23 377.574 297.279 198.906
internal_count=480000 341806 187272 154534 158726 115429 142048 28546 50526 72522 64903 27073 17529 16840 13708 9360
cat_boundaries=0 1
cat_threshold=21
is_linear=0
shrinkage=0.05


Tree=31
num_leaves=17
num_cat=2
split_feature=25 1 12 15 27 12 16 22 3 3 1 3 18 20 5 12
split_gain=243.002 114.649 108.203 76.2584 65.1956 60.9542 48.321 47.7973 47.252 45.341 42.3793 42.2331 42.0383 37.8857 34.7694 34.6754
threshold=0 0.31365906283374384 2.5000000000000004 197.50000000000003 1 1.5000000000000002 1.0000000180025095e-35 3.5000000000000004 44.500000000000007 128.50000000000003 0.35181827950308814 44.500000000000007 1.0000000180025095e-35 29.500000000000004 1.4619598202596789 1954.5000000000002
decision_type=1 2 2 2 9 2 2 2 2 2 2 2 2 2 2 2
left_child=2 5 8 10 11 7 -5 -2 -1 -10 14 -3 -13 -7 -4 -16
right_child=1 4 3 6 -6 13 -8 -9 9 -11 -12 12 -14 -15 15 -17
leaf_value=0.0021526833265325699 0.010474503890616218 -0.035735181355901528 0.00065725009420084272 -0.0022821099830231647 0.025541326653037218 -0.012601734347397548 0.02705682228690617 0.06376880896154638 0.037751518028547253 0.015350467102718639 -0.017239100663254885 -0.0082936883475655063 -0.030987414933652827 0.021345115406583959 0.056258271312644159 0.43812980738998591
leaf_weight=252.44222936267033 270.77683150977828 479.41322484822012 444.00909777358174 232.99582736892626 70.319618653040379 574.98754385230131 352.91591362282634 49.809920163825154 454.60558847337961 448.98363391682506 517.73484504781663 520.0358709290158 335.86420915974304 95.897159479325637 19.469754064455632 0.61318830354139109
leaf_count=20572 28559 95406 27462 10648 6522 71943 12108 2805 16123 13681 50504 61350 50913 9981 1385 38
internal_value=0 -0.0121485 0.00963694 0.00111472 -0.0213829 0.000820667 0.0153898 0.0187549 0.0212776 0.0266207 -0.00740402 -0.023854 -0.0171989 -0.00774933 0.00356786 0.0679179
internal_weight=0 2397.1 2723.77 1567.74 1405.63 991.471 585.912 320.587 1156.03 903.589 981.827 1335.31 855.9 670.885 464.092 20.0829
internal_count=480000 327479 152521 102145 214191 113288 22756 31364 50376 29804 79389 207669 112263 81924 28885 1423
cat_boundaries=0 1 2
cat_threshold=10 4
is_linear=0
shrinkage=0.05


Tree=32
num_leaves=17
num_cat=2
split_feature=26 14 22 17 1 5 6 3 20 28 11 24 13 12 2 21
split_gain=235.284 140.367 120.121 103.204 93.8997 63.4569 61.2151 51.0674 49.9147 51.5421 44.495 52.0345 49.1887 44.2069 42.7906 45.2807
threshold=1.0000000180025095e-35 0 3.5000000000000004 1 0.25155013204896876 0.053682324163163909 1.1211851449999755 34.500000000000007 29.500000000000004 4.5000000000000009 6390.3722429419695 2.7931446932009254 7.5000000000000009 19.500000000000004 1.0000000180025095e-35 1.0000000180025095e-35
decision_type=2 9 2 1 2 2 2 2 2 2 2 2 2 2 2 2
left_child=1 2 4 -2 13 6 8 -6 9 -4 -7 -12 -13 -1 15 -5
right_child=3 -3 5 14 7 10 -8 -9 -10 -11 11 12 -14 -15 -16 -17
leaf_value=0.029373030127808064 0.00042634800117378747 -0.015517255196273665 0.018482165861170227 -0.011177850361880062 -0.023700190505593115 0.085310442998086808 -0.010902204956943906 0.0033451277970303903 0.073908296992682615 0.053561167374572588 1.0885562526264003 0.65113057070783142 -0.051179523493098115 -0.0010792321535654408 -0.03621487082908878 -0.039163899037231581
leaf_weight=476.81584716355428 951.17553532775491 470.50117077957839 366.0095481807366 840.61535409744829 226.91103513422422 35.275010502897203 87.838701900560409 756.27154595125467 68.682489430997521 146.67925588204525 0.21923945145681401 0.4259209483861921 0.60126999299973249 158.89012194680981 352.26936591090634 174.54492694977671
leaf_count=27091 49457 45558 12988 121889 33832 1254 6057 58178 1846 4268 11 23 46 11655 75440 30407
internal_value=0 0.00921751 0.0142293 -0.0123263 0.00678616 0.031505 0.0280025 -0.00289673 0.0338805 0.0285182 0.0956846 0.389281 0.240031 0.0217617 -0.0210461 -0.0159897
internal_weight=0 2795.12 2324.62 2318.61 1618.89 705.731 669.21 983.183 581.371 512.689 36.5214 1.24643 1.02719 635.706 1367.43 1015.16
internal_count=480000 202807 157249 277193 130756 26493 25159 92010 19102 17256 1334 80 69 38746 227736 152296
cat_boundaries=0 1 2
cat_threshold=5 17
is_linear=0
shrinkage=0.05


Tree=33
num_leaves=17
num_cat=3
split_feature=0 2 21 14 21 17 16 4 5 22 27 10 2 4 12 16
split_gain=223.546 136.916 120.101 102.956 87.2022 84.549 72.6757 66.5026 52.2652 50.9982 44.3872 44.0144 42.2473 39.8931 33.4798 33.278
threshold=0.8500000000000002 1.0000000180025095e-35 1.0000000180025095e-35 0 1.0000000180025095e-35 1 1.0000000180025095e-35 55.000000000000007 0.92572258966864174 3.5000000000000004 2 3436.679996165286 1.0000000180025095e-35 75.000000000000014 267.50000000000006 1.0000000180025095e-35
decision_type=2 2 2 9 2 1 2 2 2 2 9 2 2 2 2 2
left_child=1 2 3 5 7 -1 -7 8 9 12 -8 -10 15 14 -12 -2
right_child=4 -3 -4 -5 -6 6 10 -9 11 -11 13 -13 -14 -15 -16 -17
leaf_value=-0.018129841120416622 -0.0022920297308496678 -0.029894642814466466 -0.027705416005657207 -0.020228260370411984 -0.011095438237384582 -0.0021447182395916298 0.058313081650300816 0.05478668263235148 0.13032531078155904 0.02704928420104448 0.019493422572182804 0.037027494569945259 -0.021926199869191539 0.18434693497646182 -0.0084964506591498502 0.020504487850117197
leaf_weight=297.51947233593091 283.3584442990832 586.45173643971793 429.20290484698489 451.8228040067479 281.581012357492 670.77667765691876 67.615596829913557 121.21885148971342 15.287996974075211 433.13618078990839 782.13944842293859 73.019002830376849 118.01256788871251 3.5189297301694742 123.73905974067748 367.99318192061037
leaf_count=39601 18281 108462 60227 53094 28499 49900 2082 3291 895 13320 50923 5120 16856 139 9359 19951
internal_value=0 -0.00790907 -0.00334717 0.00101414 0.0143112 0.00602099 0.0104646 0.0193777 0.0160525 0.013326 0.0192288 0.0531795 0.00560005 0.0163228 0.0156701 0.0105873
internal_weight=0 3412.79 2826.33 2397.13 1693.61 1945.31 1647.79 1412.03 1290.81 1202.5 977.013 88.307 769.364 909.397 905.879 651.352
internal_count=480000 373787 265325 205098 106213 152004 112403 77714 74423 68408 62503 6015 55088 60421 60282 38232
cat_boundaries=0 1 2 3
cat_threshold=5 8 8
is_linear=0
shrinkage=0.05


Tree=34
num_leaves=17
num_cat=1
split_feature=4 18 3 18 11 6 13 3 14 15 1 4 1 16 5 3
split_gain=209.748 141.286 118.113 86.6717 81.2906 54.6475 52.66 45.9136 42.3758 42.1093 38.6433 38.2121 35.0968 33.9787 32.9105 32.1964
threshold=45.000000000000007 1.0000000180025095e-35 44.500000000000007 1.0000000180025095e-35 4147.3691785380624 1.1211851449999755 3.5000000000000004 112.50000000000001 0 233.50000000000003 0.28256384884437608 55.000000000000007 0.32309275882781419 1.0000000180025095e-35 11.467641265843387 79.500000000000014
decision_type=2 2 2 2 2 2 2 2 9 2 2 2 2 2 2 2
left_child=1 2 10 8 15 7 -5 13 11 12 -1 14 -3 -6 -2 -4
right_child=3 9 4 6 5 -7 -8 -9 -10 -11 -12 -13 -14 -15 -16 -17
leaf_value=-0.0014466774957478607 0.02258582347854644 -0.014222532410008171 0.057885665013225597 0.018304634473027267 0.0020670471041641125 -0.017398198065910225 -0.010658785955063876 -0.0028914591028277488 -0.0023250300022958493 0.0023784362317152107 -0.023689002844646208 0.050766931962792916 -0.033519500178414714 0.02775554453898468 0.12402871476437943 0.020960582983080886
leaf_weight=307.12456043297425 515.86419980041683 401.56888457760215 81.976603752933443 272.76812035124749 211.74140373850241 280.67689552973025 369.55975260143168 544.44781127455644 120.22931728232652 156.79356111539528 536.2251802990213 181.7139789077919 570.21647809888236 328.33810126897879 8.1211138968355936 210.93852442549542
leaf_count=37833 22162 48354 5525 17298 16804 30627 34894 32721 8002 10597 87474 5033 89132 21477 507 11560
internal_value=0 -0.00698027 -0.000354561 0.015416 0.00739393 0.00226586 0.00164069 0.00735494 0.0261291 -0.021666 -0.015589 0.0305764 -0.0255455 0.0176842 0.0241581 0.0312946
internal_weight=0 3630.05 2501.47 1468.26 1658.12 1365.2 642.328 1084.53 825.929 1128.58 843.35 705.699 971.785 540.08 523.985 292.915
internal_count=480000 392104 244021 87896 118714 101629 52192 71002 35704 148083 125307 27702 137486 38281 22669 17085
cat_boundaries=0 1
cat_threshold=5
is_linear=0
shrinkage=0.05


Tree=35
num_leaves=17
num_cat=2
split_feature=26 14 6 15 22 1 1 23 5 20 28 21 27 12 24 9
split_gain=202.748 115.4 102.633 92.6531 83.9356 69.9559 60.2766 42.7611 39.28 38.5593 41.1355 36.1876 35.5368 34.4754 33.902 49.7415
threshold=1.0000000180025095e-35 0 1.1211851449999755 222.50000000000003 3.5000000000000004 0.25155013204896876 0.32780245616066767 1.0000000180025095e-35 0.053682324163163909 29.500000000000004 4.5000000000000009 1.0000000180025095e-35 1 2.5000000000000004 42.110924548658637 2599.3273699584875
decision_type=2 9 2 2 2 2 2 2 2 2 2 2 9 2 2 2
left_child=1 2 4 6 5 -1 -2 11 9 10 -6 -5 -7 -4 -12 -16
right_child=3 -3 13 7 8 12 -8 -9 -10 -11 14 -13 -14 -15 15 -17
leaf_value=0.024371767466295515 -0.0061037246331654372 -0.014415962090979307 0.014497522142132714 0.011329185455120329 0.016135234037482016 -0.0027522314478610381 -0.024646098172454473 0.09445188790641669 0.087689236615491273 0.063563827889687605 0.043523077343734923 -0.027486498388621401 0.031785479121570905 -0.018600373247579152 0.54126633361679755 0.083555627253270662
leaf_weight=537.22199055808596 758.18761804909445 455.97472510044463 106.62130245007575 391.82816398213618 375.80937044881284 697.98915343312547 1038.7696494359989 13.878716261591761 30.789028746075928 74.174713775981218 152.30957371252589 70.91339645255357 83.375126904342324 300.19201829656959 0.83730737492442076 2.0391577293630689
leaf_count=28295 85730 45558 8514 20943 12988 63509 162005 794 811 1846 4205 7721 4061 32957 17 46
internal_value=0 0.00844691 0.0128683 -0.0116242 0.0176784 0.0104825 -0.0168225 0.00797449 0.0325981 0.0297952 0.0250781 0.00538083 0.0009331 -0.00992578 0.0467347 0.21679
internal_weight=0 2817.33 2361.36 2273.58 1954.55 1318.59 1796.96 476.62 635.959 605.17 530.995 462.742 781.364 406.813 155.186 2.87647
internal_count=480000 202807 157249 277193 115778 95865 247735 29458 19913 19102 17256 28664 67570 41471 4268 63
cat_boundaries=0 1 2
cat_threshold=5 4
is_linear=0
shrinkage=0.05


Tree=36
num_leaves=17
num_cat=2
split_feature=25 2 18 16 13 11 1 22 4 14 8 15 8 26 6 4
split_gain=193.649 97.225 95.1441 88.8574 80.6233 60.079 53.6633 50.0643 47.3268 37.7305 35.3006 32.3234 32.3067 28.7259 28.5243 33.1407
threshold=0 1.0000000180025095e-35 1.0000000180025095e-35 1.0000000180025095e-35 3.5000000000000004 4135.8304889368947 0.17022592751238502 3.5000000000000004 25.000000000000004 1 1870.5000000000002 227.50000000000003 1624.5000000000002 1.0000000180025095e-35 10.893727729383633 75.000000000000014
decision_type=1 2 2 2 2 2 2 2 2 9 2 2 2 2 2 2
left_child=3 2 4 7 -2 12 11 13 -7 10 14 -6 -5 -1 15 -10
right_child=1 -3 -4 5 6 8 -8 -9 9 -11 -12 -13 -14 -15 -16 -17
leaf_value=-0.00056520011393763523 0.038492451619982458 -0.033083337908001532 -0.021034656982899573 0.030658206339466816 0.010304439962048356 -0.010046549677294124 -0.0088412957531474219 0.013312473362012304 0.0168733998985524 -0.0063523753795090079 0.035269056454480668 0.06210906338604047 0.079383200257016076 -0.019674899620993773 -0.012929510653681524 0.18459139460542071
leaf_weight=442.22420497471467 135.21507843863219 414.91143082641065 701.72633640561253 215.06740497658029 229.77557133277878 207.46283314097673 811.90675883530639 364.362497034017 611.10253067314625 164.05715441936627 266.42843821877614 34.651515641715378 40.412058797199279 354.14069187035784 86.866725194267929 2.9596490105614057
leaf_count=26111 8823 96911 103008 9536 19941 17445 97429 13884 23247 10845 11341 1367 1731 32476 5851 54
internal_value=0 -0.0110944 -0.00638394 0.00845393 0.00210172 0.0161463 -0.00246989 -0.00203929 0.0119065 0.0159319 0.0195745 0.0170931 0.0383656 -0.00906322 0.0138881 0.0176818
internal_weight=0 2328.19 1913.28 2755.08 1211.55 1594.36 1076.33 1160.73 1338.88 1131.41 967.357 264.427 255.479 796.365 700.929 614.062
internal_count=480000 327479 230568 152521 127560 80050 118737 72471 68783 51338 40493 21308 11267 58587 29152 23301
cat_boundaries=0 1 2
cat_threshold=10 5
is_linear=0
shrinkage=0.05


Tree=37
num_leaves=17
num_cat=2
split_feature=0 25 21 2 13 18 18 27 15 1 13 28 3 3 13 5
split_gain=186.769 118.444 71.2697 62.8588 54.9433 52.3953 49.5722 48.5511 43.8567 43.6373 43.6301 33.554 29.9818 35.1583 33.1694 31.0311
threshold=0.8500000000000002 0 1.0000000180025095e-35 1.0000000180025095e-35 4.5000000000000009 1.0000000180025095e-35 1.0000000180025095e-35 1 213.50000000000003 0.50075477935976243 3.5000000000000004 4.5000000000000009 28.500000000000004 138.50000000000003 11.500000000000002 0.013815659499522152
decision_type=2 1 2 2 2 2 2 9 2 2 2 2 2 2 2 2
left_child=1 4 7 5 -1 10 12 8 9 11 -3 -2 -6 14 15 -14
right_child=2 3 -4 -5 6 -7 -8 -9 -10 -11 -12 -13 13 -15 -16 -17
leaf_value=0.01903867285896458 0.0064821803698846912 0.025582641855019125 -0.010353263753503457 -0.035188173916554349 -0.01679316174862799 -0.023772832205360639 -0.018062180945474082 0.053165197060460689 0.026641827179913025 -0.0066611665496511437 -0.0082011083279773991 0.032142086734986912 0.045428084435554072 -0.007550830930074851 -0.0014254436082979025 0.010944163319159338
leaf_weight=400.60414596367627 316.21226635319181 107.38567427871749 276.13348254491575 340.94495268701576 132.5754253664054 550.71330424211919 351.77557533234358 88.910610280698165 507.47029570839368 315.85702336439863 868.37026233319193 213.36587098496966 133.48485049046576 202.35297082550824 142.38301706081256 127.60161959053949
leaf_count=17232 19934 7298 28499 83322 15748 85215 32492 2345 13336 28543 102557 13556 5835 9168 8768 6152
internal_value=0 -0.00735137 0.0129176 -0.0156937 0.00318258 -0.0114424 -0.00261484 0.0173744 0.0150223 0.00804768 -0.00448308 0.0168205 0.00474433 0.00945749 0.0179877 0.0285746
internal_weight=0 3358.19 1717.95 1867.41 1490.78 1526.47 1090.17 1441.82 1352.91 845.435 975.756 529.578 738.398 605.822 403.469 261.086
internal_count=480000 373787 106213 278392 95395 195070 78163 77714 75369 62033 109855 33490 45671 29923 20755 11987
cat_boundaries=0 1 2
cat_threshold=8 4
is_linear=0
shrinkage=0.05


Tree=38
num_leaves=17
num_cat=1
split_feature=26 21 2 4 21 0 18 28 8 4 23 17 1 4 20 13
split_gain=172.462 99.8576 85.5337 83.2371 79.738 68.4663 61.8496 61.0945 50.0249 42.6396 42.5582 42.0923 35.7505 35.5352 32.3079 30.2696
threshold=1.0000000180025095e-35 1.0000000180025095e-35 1.0000000180025095e-35 25.000000000000004 1.0000000180025095e-35 0.45000000000000007 1.0000000180025095e-35 6.5000000000000009 1526.5000000000002 55.000000000000007 1.0000000180025095e-35 0 0.17330835410757392 55.000000000000007 26.500000000000004 5.5000000000000009
decision_type=2 2 2 2 2 2 2 2 2 2 2 1 2 2 2 2
left_child=1 3 4 -1 5 -2 7 8 -5 10 12 -3 -7 -8 -11 -10
right_child=2 11 -4 6 -6 9 13 -9 15 14 -12 -13 -14 -15 -16 -17
leaf_value=-0.0078015490834967977 -0.017586491585916738 0.0032590615664386488 -0.031901884046345912 0.0105726056359902 -0.031832747107775894 0.01698492381191653 -0.0028877462898865632 0.055504309526936579 0.049415066183221848 0.022512710840243935 0.064901555642431996 -0.027362023931220308 -0.0050824337706431872 0.029474915384089598 0.097609753575877561 0.02265691894643454
leaf_weight=443.3554222995881 488.49405631865375 204.031602029223 397.85824151500128 744.909175488865 262.42216468183324 245.33981162356213 489.511659698328 124.25688726035878 155.1158800360281 60.720440907170996 26.326816802145913 244.26082711433992 728.57828164752573 102.60085797146894 18.742776414845139 331.69419388007373
leaf_count=46024 60796 11631 84533 32811 39905 15999 36858 4722 4741 3017 1847 43240 70143 4582 953 18198
internal_value=0 0.00769255 -0.0108898 0.011752 -0.00632313 -0.00205436 0.0162021 0.0220894 0.0187184 0.00497286 0.00217225 -0.0139631 0.000476557 0.00272003 0.0402256 0.0311831
internal_weight=0 2839.74 2228.48 2391.44 1830.62 1568.2 1948.09 1355.98 1231.72 1079.71 1000.24 448.292 973.918 592.113 79.4632 486.81
internal_count=480000 202807 277193 147936 192660 152755 101912 60472 55750 91959 87989 54871 86142 41440 3970 22939
cat_boundaries=0 1
cat_threshold=1
is_linear=0
shrinkage=0.05


Tree=39
num_leaves=17
num_cat=2
split_feature=2 12 21 17 20 13 1 0 16 4 5 28 20 19 11 14
split_gain=162.663 143.95 99.3133 91.7257 69.3285 64.6025 53.3885 42.3995 39.318 36.5072 35.3128 32.1697 31.7583 31.0376 29.7159 29.039
threshold=1.0000000180025095e-35 2.5000000000000004 1.0000000180025095e-35 0 29.500000000000004 2.5000000000000004 0.29138923705558167 0.8500000000000002 1.0000000180025095e-35 75.000000000000014 0.92572258966864174 1.0000000180025095e-35 30.500000000000004 1.0000000180025095e-35 4253.0886404772673 1
decision_type=2 2 2 1 2 2 2 2 2 2 2 2 2 2 2 9
left_child=1 5 3 -3 7 -1 10 15 -8 11 13 -10 -6 -7 -13 -5
right_child=-2 2 -4 4 12 6 8 -9 9 -11 -12 14 -14 -15 -16 -17
leaf_value=0.039489153130055195 -0.021979370084860464 -0.025762677406410146 -0.02759252114453456 -0.0024931111607174928 0.037378818692266634 0.049296155340036008 -0.0078259238490703507 0.01064712246038679 0.052346233627578509 0.43491568943139802 0.056835020016067488 0.029297046227348744 0.0055268123091381629 0.013444379468503215 0.00096389106080367072 -0.02450645720262682
leaf_weight=218.18461851705797 748.80483384965919 291.38374761329032 393.28739581163973 765.40570613183081 198.86244689789601 68.83929223800078 443.0022016831208 537.43522811215371 45.062319662654772 0.51059868698939581 64.840400624787435 124.21998577914201 129.03542023547925 490.55921150208451 362.88976218248717 178.69371078535914
leaf_count=7065 138194 41674 56056 60437 11117 3289 38443 26056 3478 20 3100 8355 8264 24915 27338 22199
internal_value=0 0.00326697 -0.00453273 -0.000215775 0.00401837 0.0139667 0.0104862 -0.000563772 0.00318041 0.0123338 0.021905 0.0119283 0.0248443 0.0178563 0.00818925 -0.00694565
internal_weight=0 4312.21 2494.1 2100.82 1809.43 1818.11 1599.92 1481.53 975.685 532.683 624.239 532.172 327.898 559.399 487.11 944.099
internal_count=480000 341806 225803 169747 128073 116003 108938 108692 77634 39191 31304 39171 19381 28204 35693 82636
cat_boundaries=0 1 2
cat_threshold=8 5
is_linear=0
shrinkage=0.05


Tree=40
num_leaves=17
num_cat=4
split_feature=0 25 27 16 17 12 5 11 4 1 20 23 27 15 1 6
split_gain=154.879 104.979 58.9774 52.919 49.8581 47.9047 44.4458 37.654 35.1683 35.0473 33.012 28.9861 29.9973 32.4891 28.9546 27.52
threshold=0.8500000000000002 0 1 1.0000000180025095e-35 2 1.5000000000000002 1.2483813850309005 4135.8304889368947 55.000000000000007 0.4459030698523932 23.500000000000004 1.0000000180025095e-35 3 294.50000000000006 0.31835970726202983 28.295898391874065
decision_type=2 1 9 2 1 2 2 2 2 2 2 2 9 2 2 2
left_child=1 5 4 11 -3 -1 7 -5 9 10 -7 12 13 -2 -6 -9
right_child=3 2 -4 6 14 8 -8 15 -10 -11 -12 -13 -14 -15 -16 -17
leaf_value=0.014925429401292359 -0.0055994082085074068 -0.0057111523601203577 0.020544208925956306 0.036037811906877805 -0.013672088798863372 -0.0083452196448665899 0.060904644913668093 0.014666188592697672 0.023624688056613614 -0.017360444721348126 0.020135194930980024 0.063183625008135277 0.043571198255258313 0.036813794362469142 -0.030475207659063738 -0.016164851233764422
leaf_weight=542.06409729225561 632.29931834014133 633.76740828948095 110.21821648417972 194.23069631960243 421.26242815819569 254.79816637421027 59.647897205548361 672.76604709262028 104.67291528126225 418.99151810165495 169.38617228576913 18.511931968154386 37.144803310977295 48.62398699298501 655.00688339117914 81.104436848312616
leaf_count=26247 47916 41797 9118 9911 76372 16885 3577 34123 4263 38235 9765 1180 1327 1190 151105 6989
internal_value=0 -0.00681522 -0.0148249 0.0115953 -0.0171912 0.00304938 0.0190408 0.016407 -0.00371023 -0.00710362 0.00302764 0.00140871 -0.000183861 -0.00257073 -0.0236783 0.0113493
internal_weight=0 3310.17 1820.25 1744.33 1710.04 1489.91 1007.75 948.101 947.849 843.176 424.184 736.58 718.068 680.923 1076.27 753.87
internal_count=480000 373787 278392 106213 269274 95395 54600 51023 69148 64885 26650 51613 50433 49106 227477 41112
cat_boundaries=0 1 2 3 4
cat_threshold=8 4 17 4
is_linear=0
shrinkage=0.05


Tree=41
num_leaves=17
num_cat=3
split_feature=3 6 14 3 1 25 13 25 12 26 11 24 11 0 1 5
split_gain=149.317 122.24 103.659 88.565 57.4046 45.5333 42.5584 41.7559 40.6775 34.3989 31.1825 27.8488 45.2714 26.132 25.1694 24.2461
threshold=38.500000000000007 1.1211851449999755 0 135.50000000000003 0.17330835410757392 1 3.5000000000000004 2 2.5000000000000004 1.0000000180025095e-35 5849.0503619072824 20.645262821039346 3053.0196134938592 0.75000000000000011 0.29995297680646205 0.5179083317675669
decision_type=2 2 9 2 2 1 2 1 2 2 2 2 2 2 2 2
left_child=7 2 3 4 11 -6 -5 13 -3 10 -7 -2 -13 -1 -8 -10
right_child=1 8 -4 6 5 9 14 -9 15 -11 -12 12 -14 -15 -16 -17
leaf_value=-0.016960726116474704 0.032957903248947755 0.005071853559239778 -0.012097116128893056 0.018151758757133388 0.023772939781102311 0.010403226714993915 0.0071562310593839863 -0.025261638708491154 -0.025715614854235097 -0.011660163346800596 0.079243410976676629 0.56773221987578448 0.078518632331469593 0.0046691433437545992 -0.01034781882231274 0.0070549810192040048
leaf_weight=277.19076779391617 398.06818325724453 195.29804823012091 509.19069742388092 306.14268441800959 573.88430408248678 257.94664706499316 335.99870124459267 598.82209645700641 457.86128023592755 221.83717640372925 17.570537911728024 0.48256320832297461 23.610041233710945 281.39344724081457 528.24324130197056 64.379803712712601
leaf_count=33581 16531 17211 50986 10456 23609 20679 14791 131908 57232 33061 1441 12 814 22807 37128 7753
internal_value=0 0.00424167 0.00845634 0.0123841 0.0205016 0.0143477 0.00213207 -0.016215 -0.0143957 0.00293517 0.0147934 0.0361173 0.0883173 -0.00595776 -0.00354262 -0.0216758
internal_weight=0 3890.51 3172.97 2663.78 1493.4 1071.24 1170.38 1157.41 717.539 497.354 275.517 422.161 24.0926 558.584 864.242 522.241
internal_count=480000 291704 209508 158522 96147 78790 62375 188296 82196 55181 22120 17357 826 56388 51919 64985
cat_boundaries=0 1 2 3
cat_threshold=5 8 10
is_linear=0
shrinkage=0.05


Tree=42
num_leaves=17
num_cat=2
split_feature=16 14 6 17 20 26 8 11 12 11 2 5 24 24 1 3
split_gain=145.908 85.8577 78.2066 77.8712 55.8339 53.6196 38.6588 38.1079 35.3728 31.4506 31.2983 35.6758 47.2011 48.7929 31.163 30.8169
threshold=1.0000000180025095e-35 0 1.1211851449999755 1 29.500000000000004 1.0000000180025095e-35 1870.5000000000002 4135.8304889368947 1.5000000000000002 4287.79203874018 212.50000000000003 0.011606690057474951 6.2448610471024706 4.5286246760668485 0.17330835410757392 57.500000000000007
decision_type=2 9 2 1 2 2 2 2 2 2 2 2 2 2 2 2
left_child=3 2 4 8 5 6 9 -6 -1 -2 -8 -12 13 -13 -7 -4
right_child=1 -3 15 -5 7 14 10 -9 -10 -11 11 12 -14 -15 -16 -17
leaf_value=0.010011633109144004 0.026934215021111707 -0.012282926826421795 -0.026969737456072097 -0.019885387227414852 0.084860815823773625 0.018965018253005762 0.033913492914845904 0.02892740024312947 -0.008324246080137529 0.0062070724199894496 -0.050883510745772853 0.24581215691722497 0.17552904931654179 1.3899859057226724 -0.0050476125955318391 0.0019912068225608798
leaf_weight=444.8386364618782 277.30389950377867 480.376859072363 158.27841137186624 1058.1633801336866 35.768623510142788 180.57872334984131 262.11889615072869 204.85906462324783 643.57074758829549 538.25919554382563 0.60762203275225957 0.16867190971970536 0.65496606635861099 0.20818158728070557 536.65208607213572 218.8802257112693
leaf_count=15990 13013 59792 26377 176135 1845 13886 14292 11487 33489 29904 76 25 58 19 62389 21223
internal_value=0 0.0068868 0.0107075 -0.0103162 0.0146239 0.0115945 0.018636 0.0372417 -0.000822717 0.0132546 0.0352756 0.253061 0.432049 0.877877 0.000998098 -0.0101625
internal_weight=0 2894.72 2414.34 2146.57 2037.18 1796.55 1079.32 240.628 1088.41 815.563 263.758 1.63944 1.03182 0.376853 717.231 377.159
internal_count=480000 254386 194594 225614 146994 133662 57387 13332 49479 42917 14470 178 102 44 76275 47600
cat_boundaries=0 1 2
cat_threshold=5 17
is_linear=0
shrinkage=0.05


Tree=43
num_leaves=17
num_cat=2
split_feature=21 4 18 0 17 6 27 0 3 3 1 13 2 1 3 3
split_gain=139.879 121.204 89.0767 70.1032 45.9425 40.9339 37.049 36.8384 38.2226 48.8782 35.4012 34.3202 32.301 27.9015 27.3388 31.5694
threshold=1.0000000180025095e-35 45.000000000000007 1.0000000180025095e-35 0.65000000000000002 0 1.0000000180025095e-35 1 0.35000000000000003 139.50000000000003 30.500000000000004 0.30455035780542289 3.5000000000000004 1.0000000180025095e-35 0.99804761741367709 41.500000000000007 151.50000000000003
decision_type=2 2 2 2 1 2 9 2 2 2 2 2 2 2 2 2
left_child=1 2 3 12 -2 11 7 -3 9 -9 -4 -5 -1 -11 -13 -16
right_child=4 6 10 5 -6 -7 -8 8 -10 13 -12 14 -14 -15 15 -17
leaf_value=-0.0030441061794540714 -0.0052172368259071631 -0.0058464467007874003 -0.0040073356429012295 0.047325399884354663 -0.03116376970031878 -0.010153953248193071 0.040822918970793293 -0.0060695168685362373 0.0064056320884008262 0.03286976470498576 -0.024911789636587238 -0.0013646859438586892 -0.026957775969216585 0.20916678558527521 0.024354460863539075 0.00082126187748173126
leaf_weight=766.49442167836241 308.23319031996652 213.94906368665397 342.57171415793709 74.726667565992102 420.5445354601834 197.54899293836206 132.30075064022094 94.163774460088462 445.30184141779318 413.31154420180246 495.40498241712339 269.18162797484547 173.09917687997222 2.2565342546440652 484.72478987136856 201.85560741019435
leaf_count=73119 21082 15389 35840 2641 85690 21355 3615 10030 16262 18480 73137 34608 39910 98 20824 7920
internal_value=0 0.00299723 -0.00252185 0.00283007 -0.020689 0.0106953 0.0157448 0.0129065 0.0171076 0.0264569 -0.0163659 0.0146922 -0.00744967 0.0338271 0.0121407 0.0174357
internal_weight=0 4306.89 3005.61 2167.63 728.778 1228.04 1301.28 1168.98 955.034 509.732 837.977 1030.49 939.594 415.568 955.762 686.58
internal_count=480000 373228 309354 200377 106772 87348 63874 60259 44870 28608 108977 65993 113029 18578 63352 28744
cat_boundaries=0 1 2
cat_threshold=1 4
is_linear=0
shrinkage=0.05


Tree=44
num_leaves=17
num_cat=1
split_feature=22 21 2 16 6 28 5 17 11 28 5 10 10 5 5 28
split_gain=133.413 115.277 94.9448 74.9997 54.164 44.7741 42.464 38.5906 37.4165 41.8922 38.537 35.818 33.0197 32.7683 33.7536 32.4823
threshold=3.5000000000000004 1.0000000180025095e-35 1.0000000180025095e-35 1.0000000180025095e-35 1.1211851449999755 4.5000000000000009 1.0907332115036019 0 6488.7776228760931 4.5000000000000009 0.017212540562470353 2056.4345124081065 5502.0302053333971 0.053682324163163909 0.022031445908343956 1.5000000000000002
decision_type=2 2 2 2 2 2 2 1 2 2 2 2 2 2 2 2
left_child=1 2 3 -1 5 13 7 -5 9 15 12 -8 -11 14 -2 -9
right_child=4 -3 -4 6 -6 -7 11 8 -10 10 -12 -13 -14 -15 -16 -17
leaf_value=-0.0081263373058098314 0.01377659426426537 -0.027460255642739781 -0.022041119508763418 -0.015180327614807317 -0.011461256643442155 0.032194875124493642 0.46761979421120919 0.017172712364563036 0.052689328148128892 0.026419585676778837 0.0015613193327299356 0.035455818864623651 0.094027874780336695 0.054066748750695628 -0.010738556079322285 -0.0063947958400716806
leaf_weight=1087.2487266033422 654.31674944306724 513.04636155557819 491.45122216967866 170.97005329071544 200.11864815140143 334.01370391203091 0.48132322356104751 204.77277885726653 48.661910550901666 267.67186507955194 181.8186745767016 123.22469310299493 19.366490393644199 41.446517784846947 178.76901963306591 511.17289339425042
leaf_count=101205 30691 86123 101778 23409 18708 12569 30 17783 4105 15555 12464 8897 1328 1663 9626 34066
internal_value=0 -0.00550312 -0.00187724 0.0019117 0.0126328 0.0166224 0.00905361 0.00657993 0.00964102 0.00795432 0.0195724 0.0371373 0.0309811 0.0106748 0.00851597 0.000345917
internal_weight=0 3619.89 3106.84 2615.39 1408.66 1208.55 1528.14 1404.43 1233.46 1184.8 468.857 123.706 287.038 874.532 833.086 715.946
internal_count=480000 406743 320620 218842 73257 54549 117637 108710 85301 81196 29347 8927 16883 41980 40317 51849
cat_boundaries=0 1
cat_threshold=8
is_linear=0
shrinkage=0.05


Tree=45
num_leaves=17
num_cat=2
split_feature=26 14 3 13 1 21 17 11 5 5 28 18 18 15 11 9
split_gain=131.405 77.0573 68.3425 59.581 56.9861 55.2004 57.4587 50.0547 47.5218 37.6446 31.6342 31.1592 28.3435 27.1527 30.6429 26.3801
threshold=1.0000000180025095e-35 0 46.500000000000007 3.5000000000000004 0.42168980366730768 1.0000000180025095e-35 1 6020.5221724894282 0.92572258966864174 0.021113036766319152 4.5000000000000009 1.0000000180025095e-35 1.0000000180025095e-35 339.50000000000006 5315.4982484845505 1764.398055597999
decision_type=2 9 2 2 2 2 1 2 2 2 2 2 2 2 2 2
left_child=1 3 -2 -1 8 6 -4 12 9 10 -5 -8 -6 -13 15 -15
right_child=2 -3 5 4 7 -7 11 -9 -10 -11 -12 13 -14 14 -16 -17
leaf_value=0.025219862855541942 -0.022694701618951003 -0.012668263309387088 -0.02559766889411625 0.0087786243947127855 -0.00050090646019240682 -0.028526805604928426 0.011054731487081334 0.04141360690463753 0.051886954484391172 -0.0057284673730496564 0.031000586667769049 -0.0074422946560041966 -0.02095091985224893 -0.052097899602069633 -0.052426716054388194 0.37924247732602007
leaf_weight=513.30779341352172 691.14899245859124 433.03180272947066 175.55688524385914 424.94437040644698 622.90575680881739 193.20581111847423 684.28578059002757 59.367595769930631 77.475832224125043 244.07322315801866 257.01538362423889 410.41499045235105 232.74553609779105 0.47606119629926924 1.2304457025602458 1.3878059852868316
leaf_count=18145 132747 45558 30220 25017 47907 30850 42326 5453 4995 15762 13672 40944 26298 17 42 47
internal_value=0 0.00660532 -0.00973238 0.0100481 0.00604122 -0.00362359 0.000154983 -0.00298313 0.0142698 0.0111226 0.0171536 0.00446578 -0.00606351 -0.00632978 0.141228 0.269071
internal_weight=0 2864.87 2157.71 2431.84 1918.53 1466.56 1273.35 915.019 1003.51 926.033 681.96 1097.8 855.651 413.509 3.09431 1.86387
internal_count=480000 202807 277193 157249 139104 144446 113596 79658 59446 54451 38689 83376 74205 41050 106 64
cat_boundaries=0 1 2
cat_threshold=5 8
is_linear=0
shrinkage=0.05


Tree=46
num_leaves=17
num_cat=2
split_feature=0 27 25 2 18 12 15 1 16 1 8 28 4 11 4 26
split_gain=121.474 87.255 75.7055 46.4897 42.0225 41.9196 40.2296 34.3361 32.7085 30.669 26.8154 31.3982 26.1436 32.4739 25.5066 24.4919
threshold=0.8500000000000002 0 1 1.0000000180025095e-35 1.0000000180025095e-35 2.5000000000000004 244.50000000000003 0.17330835410757392 1.0000000180025095e-35 0.24785219920741045 1727.5000000000002 6.5000000000000009 55.000000000000007 6488.7776228760931 55.000000000000007 1.0000000180025095e-35
decision_type=2 9 1 2 2 2 2 2 2 2 2 2 2 2 2 2
left_child=1 -1 6 4 8 10 9 -7 -4 -3 12 15 13 -2 -11 -12
right_child=5 2 3 -5 -6 7 -8 -9 -10 14 11 -13 -14 -15 -16 -17
leaf_value=0.026899335287628952 0.0080007548712212329 0.0071278333195857069 -0.016446017227926085 -0.034071072191262465 -0.023570705181156233 0.016840987065443496 0.018181291649321883 -0.0031626317758950565 0.0027723229638383457 -0.013030842401177471 0.042413122061894411 0.1205881648369997 0.04542744605086433 0.10762575833759017 0.01911506860459258 0.0058705777385062432
leaf_weight=188.14661807194352 508.54675937863067 418.93519295705482 382.75418741093017 277.92959125083871 484.0697701331228 315.96498817205429 261.10679379617795 668.18060989561491 525.16645197547041 640.79400317976251 131.52282532840036 9.9654433191753906 56.493658165447414 8.3134262098465097 68.283594531007111 70.394137382041663
leaf_count=9871 25210 21679 49480 81281 83010 15780 7870 53737 57807 59403 4398 423 1273 449 3386 4943
internal_value=0 -0.00614949 -0.00818216 -0.0153091 -0.011673 0.0101341 0.000492109 0.00325963 -0.0053296 -0.00359813 0.0187499 0.0339493 0.013133 0.00960317 -0.00993522 0.0296733
internal_weight=0 3247.19 3059.04 1669.92 1391.99 1769.38 1389.12 984.146 907.921 1128.01 785.236 211.882 573.354 516.86 709.078 201.917
internal_count=480000 373787 363916 271578 190297 106213 92338 69517 107287 84468 36696 9764 26932 25659 62789 9341
cat_boundaries=0 1 2
cat_threshold=8 8
is_linear=0
shrinkage=0.05


Tree=47
num_leaves=17
num_cat=2
split_feature=16 14 4 17 8 11 6 28 5 4 12 0 28 28 10 2
split_gain=117.804 69.3045 61.9089 61.8521 45.7972 48.5162 49.5146 36.4167 32.9822 31.3838 29.208 27.2165 27.1628 26.0861 29.7885 29.2073
threshold=1.0000000180025095e-35 0 25.000000000000004 1 1870.5000000000002 6488.7776228760931 1.1211851449999755 4.5000000000000009 18.158381801245188 75.000000000000014 2.5000000000000004 0.8500000000000002 2.5000000000000004 6.5000000000000009 4912.1747535753411 33.500000000000007
decision_type=2 9 2 1 2 2 2 2 2 2 2 2 2 2 2 2
left_child=3 2 -2 10 5 6 7 9 -7 12 -1 -5 -4 -6 15 -15
right_child=1 -3 4 11 13 8 -8 -9 -10 -11 -12 -13 -14 14 -16 -17
leaf_value=0.0073188418101025141 -0.0086838563686657752 -0.011380695215367394 0.013859453935567088 -0.023233566900831081 0.023658423697455286 0.058256186027759074 -0.015350814307251732 0.021002257469192223 0.56419880859096494 0.15108372430725769 -0.0090603123519902816 -0.0042392460207656751 -0.0052584757242793339 0.047103803979877595 0.29234032698299267 0.31502482439810503
leaf_weight=529.79290915094316 392.8408219285775 468.52935993717983 331.20077795232646 753.71825296944007 504.62535809841938 40.696943037444726 210.17019905266352 521.69925173418596 0.32468989561311801 3.6015580424573264 559.75770102278329 251.52999803703278 423.19390728394501 15.220774927875032 1.580670864554121 1.0900788686703879
leaf_count=19449 51862 59792 24633 141434 35679 3161 25033 30098 37 89 30030 34701 22882 834 115 171
internal_value=0 0.00610592 0.00946297 -0.0094386 0.0129808 0.00861831 0.00714133 0.0108353 0.0622608 0.00383781 -0.001086 -0.0182988 0.00313484 0.025762 0.0850935 0.0650094
internal_weight=0 2914.77 2446.25 2094.8 2053.4 1530.89 1489.87 1279.7 41.0216 757.996 1089.55 1005.25 754.395 522.517 17.8915 16.3109
internal_count=480000 254386 194594 225614 142732 105933 102735 77702 3198 47604 49479 176135 47515 36799 1120 1005
cat_boundaries=0 1 2
cat_threshold=5 17
is_linear=0
shrinkage=0.05


Tree=48
num_leaves=17
num_cat=2
split_feature=26 14 2 21 0 12 20 28 27 20 11 6 4 23 15 3
split_gain=113.67 64.4009 62.3003 58.762 50.5229 50.2872 57.0334 30.6489 30.1589 30.06 29.9884 29.8241 29.2031 31.1907 25.0051 24.0605
threshold=1.0000000180025095e-35 0 1.0000000180025095e-35 1.0000000180025095e-35 0.45000000000000007 2.5000000000000004 29.500000000000004 1.0000000180025095e-35 1 30.500000000000004 4147.3691785380624 0.11398727644357561 55.000000000000007 1.0000000180025095e-35 256.50000000000006 64.500000000000014
decision_type=2 9 2 2 2 2 2 2 9 2 2 2 2 2 2 2
left_child=1 5 3 4 -2 7 11 -1 12 15 -9 -7 13 14 -6 -8
right_child=2 -3 -4 -5 8 6 9 10 -10 -11 -12 -13 -14 -15 -16 -17
leaf_value=0.047105432151680886 -0.015791649996265228 -0.011777525316450424 -0.02876058724246762 -0.029072368022584668 -0.0048853155590594752 0.0021073631957663087 0.078890194378074249 0.032233409085429814 0.05468633511024229 0.0046939942922885666 0.010665824487195526 -0.017973755043523401 0.031273535799975688 0.052227406015276014 0.017155555911732207 0.02877344318023364
leaf_weight=77.884551930008456 462.46018744795583 423.04517472186126 340.34271542541683 228.87012302759103 801.81444754544646 839.38438761746511 32.003725744551048 197.40238661877811 28.495522005017847 99.483500766102225 878.16343964240514 237.1330341482535 81.773722392739728 27.961838264251128 153.27899276372045 95.148495411500335
leaf_count=3864 60796 45558 84533 39905 79786 57695 2145 8616 1421 6555 45180 29387 3843 1808 5101 3807
internal_value=0 0.00608897 -0.00915613 -0.00541746 -0.00193761 0.0091763 0.00248338 0.0168174 0.00392245 0.0252807 0.0146242 -0.00231606 0.00256398 0.000175823 -0.00134807 0.0413876
internal_weight=0 2879.65 2125 1784.65 1555.78 2456.6 1303.15 1153.45 1093.32 226.636 1075.57 1076.52 1064.83 983.055 955.093 127.152
internal_count=480000 202807 277193 192660 152755 157249 99589 57660 91959 12507 53796 87082 90538 86695 84887 5952
cat_boundaries=0 1 2
cat_threshold=5 4
is_linear=0
shrinkage=0.05


Tree=49
num_leaves=17
num_cat=1
split_feature=18 13 13 23 15 16 5 27 11 5 1 6 1 15 3 0
split_gain=109.018 87.5736 69.1514 56.8187 48.9491 47.0167 38.2462 37.2329 36.4181 32.3851 31.0826 28.6922 32.4035 30.1701 27.5788 28.9273
threshold=1.0000000180025095e-35 10.500000000000002 2.5000000000000004 1.0000000180025095e-35 238.50000000000003 1.0000000180025095e-35 0.5179083317675669 0 3627.1423694140044 0.020590029968977904 0.45366397787319185 1.0000000180025095e-35 0.13702847757174377 250.50000000000003 38.500000000000007 0.65000000000000002
decision_type=2 2 2 2 2 2 2 9 2 2 2 2 2 2 2 2
left_child=1 3 -2 5 10 11 9 -3 -8 -7 -4 12 -1 -14 -9 -16
right_child=2 7 4 -5 -6 6 8 14 -10 -11 -12 -13 13 -15 15 -17
